booster[0]:
0:[trkKink<18.8519993] yes=1,no=2,missing=2
	1:[trkValidFrac<0.923076928] yes=3,no=4,missing=4
		3:[nLostHitsOn<1] yes=7,no=8,missing=8
			7:[pt<8.22421265] yes=15,no=16,missing=16
				15:[glbTrackProbability<2.47761869] yes=31,no=32,missing=32
					31:leaf=-0.429466844
					32:leaf=-0.529666305
				16:[nLostHitsOuter<2] yes=33,no=34,missing=34
					33:leaf=0.335501969
					34:leaf=-0.50965029
			8:[trkValidFrac<0.866666675] yes=17,no=18,missing=18
				17:[pt<5.29208422] yes=35,no=36,missing=36
					35:leaf=-0.434608787
					36:leaf=-0.126262203
				18:[pt<3.55354238] yes=37,no=38,missing=38
					37:leaf=-0.0975199267
					38:leaf=0.232743889
		4:[chi2LocalPosition<7.45549965] yes=9,no=10,missing=10
			9:[pt<3.56727695] yes=19,no=20,missing=20
				19:[trkKink<10.9307699] yes=39,no=40,missing=40
					39:leaf=0.207665369
					40:leaf=0.0110111088
				20:[pt<4.96577787] yes=41,no=42,missing=42
					41:leaf=0.348273128
					42:leaf=0.47592631
			10:[glbTrackProbability<3.35595798] yes=21,no=22,missing=22
				21:[match1_pullX<1.94908226] yes=43,no=44,missing=44
					43:leaf=0.0559810363
					44:leaf=-0.155306235
				22:[match1_pullX<1.86854458] yes=45,no=46,missing=46
					45:leaf=-0.161113635
					46:leaf=-0.420052111
	2:[trkKink<35.5576553] yes=5,no=6,missing=6
		5:[pt<4.02966785] yes=11,no=12,missing=12
			11:[trkValidFrac<0.928571403] yes=23,no=24,missing=24
				23:[nLostHitsOn<2] yes=47,no=48,missing=48
					47:leaf=-0.510950029
					48:leaf=-0.406722009
				24:[pt<3.26385164] yes=49,no=50,missing=50
					49:leaf=-0.267157167
					50:leaf=-0.121051393
			12:[chi2LocalPosition<5.43476391] yes=25,no=26,missing=26
				25:[trkValidFrac<0.923076928] yes=51,no=52,missing=52
					51:leaf=-0.343606591
					52:leaf=0.144320905
				26:[nLostHitsOuter<1] yes=53,no=54,missing=54
					53:leaf=-0.291299045
					54:leaf=-0.562229574
		6:[glbTrackProbability<16.0323963] yes=13,no=14,missing=14
			13:[pt<4.89496899] yes=27,no=28,missing=28
				27:[trkValidFrac<0.928571403] yes=55,no=56,missing=56
					55:leaf=-0.490553617
					56:leaf=-0.377481967
				28:[nLostHitsOuter<1] yes=57,no=58,missing=58
					57:leaf=-0.0685210451
					58:leaf=-0.47972405
			14:[glbTrackProbability<25.5711746] yes=29,no=30,missing=30
				29:[trkValidFrac<0.92592591] yes=59,no=60,missing=60
					59:leaf=-0.549322546
					60:leaf=-0.465376079
				30:[pt<18.6034393] yes=61,no=62,missing=62
					61:leaf=-0.54573667
					62:leaf=-0.0528000034
booster[1]:
0:[trkKink<16.6627598] yes=1,no=2,missing=2
	1:[trkValidFrac<0.928571403] yes=3,no=4,missing=4
		3:[nLostHitsOn<2] yes=7,no=8,missing=8
			7:[trkValidFrac<0.866666675] yes=15,no=16,missing=16
				15:[glbTrackProbability<0.976199567] yes=31,no=32,missing=32
					31:leaf=-0.329107642
					32:leaf=-0.405045539
				16:[pt<4.32431412] yes=33,no=34,missing=34
					33:leaf=-0.264321148
					34:leaf=0.0306797493
			8:[trkValidFrac<0.827586234] yes=17,no=18,missing=18
				17:[pt<5.04108238] yes=35,no=36,missing=36
					35:leaf=-0.318454713
					36:leaf=-0.00411909679
				18:[chi2LocalPosition<6.7143631] yes=37,no=38,missing=38
					37:leaf=0.170595959
					38:leaf=-0.254285306
		4:[chi2LocalPosition<5.87262106] yes=9,no=10,missing=10
			9:[pt<3.31864572] yes=19,no=20,missing=20
				19:[nLostHitsInner<1] yes=39,no=40,missing=40
					39:leaf=0.127570808
					40:leaf=-0.279076874
				20:[chi2LocalPosition<0.00384560646] yes=41,no=42,missing=42
					41:leaf=0.117222734
					42:leaf=0.319136649
			10:[glbTrackProbability<2.58300662] yes=21,no=22,missing=22
				21:[nLostHitsOuter<1] yes=43,no=44,missing=44
					43:leaf=0.0342327543
					44:leaf=-0.338190496
				22:[chi2LocalPosition<15.1968603] yes=45,no=46,missing=46
					45:leaf=-0.15888761
					46:leaf=-0.328831971
	2:[trkKink<28.6814117] yes=5,no=6,missing=6
		5:[pt<4.47338724] yes=11,no=12,missing=12
			11:[trkValidFrac<0.928571403] yes=23,no=24,missing=24
				23:[nLostHitsOn<2] yes=47,no=48,missing=48
					47:leaf=-0.38461861
					48:leaf=-0.263550043
				24:[pt<3.19020033] yes=49,no=50,missing=50
					49:leaf=-0.154689595
					50:leaf=-0.0293600168
			12:[chi2LocalPosition<5.43476391] yes=25,no=26,missing=26
				25:[trkValidFrac<0.882352948] yes=51,no=52,missing=52
					51:leaf=-0.27041927
					52:leaf=0.191618472
				26:[nLostHitsOuter<1] yes=53,no=54,missing=54
					53:leaf=-0.176000014
					54:leaf=-0.435478926
		6:[glbTrackProbability<13.2635584] yes=13,no=14,missing=14
			13:[pt<4.30107164] yes=27,no=28,missing=28
				27:[trkKink<58.6280785] yes=55,no=56,missing=56
					55:leaf=-0.258387804
					56:leaf=-0.361019909
				28:[nLostHitsOuter<1] yes=57,no=58,missing=58
					57:leaf=-0.0208921563
					58:leaf=-0.358551979
			14:[glbTrackProbability<29.4831028] yes=29,no=30,missing=30
				29:[pt<5.82858753] yes=59,no=60,missing=60
					59:leaf=-0.371469438
					60:leaf=-0.222906083
				30:[pt<13.3205967] yes=61,no=62,missing=62
					61:leaf=-0.418455094
					62:leaf=-0.166438758
booster[2]:
0:[glbTrackProbability<4.61187935] yes=1,no=2,missing=2
	1:[trkValidFrac<0.923076928] yes=3,no=4,missing=4
		3:[pt<5.59301186] yes=7,no=8,missing=8
			7:[nLostHitsOn<2] yes=15,no=16,missing=16
				15:[trkValidFrac<0.882352948] yes=31,no=32,missing=32
					31:leaf=-0.284265578
					32:leaf=-0.163058907
				16:[trkKink<12.5550747] yes=33,no=34,missing=34
					33:leaf=0.10842856
					34:leaf=-0.200167507
			8:[nLostHitsOuter<2] yes=17,no=18,missing=18
				17:[nPixels<2] yes=35,no=36,missing=36
					35:leaf=0.0733186975
					36:leaf=0.388208836
				18:[chi2LocalPosition<2.91031742] yes=37,no=38,missing=38
					37:leaf=-0.0806067139
					38:leaf=-0.341915578
		4:[chi2LocalPosition<0.00384560646] yes=9,no=10,missing=10
			9:[trkKink<13.3652534] yes=19,no=20,missing=20
				19:[nValidHits<21] yes=39,no=40,missing=40
					39:leaf=0.0825675353
					40:leaf=-0.0553303584
				20:[trkKink<41.7070045] yes=41,no=42,missing=42
					41:leaf=-0.131141946
					42:leaf=-0.284932375
			10:[pt<4.08755112] yes=21,no=22,missing=22
				21:[glbTrackProbability<0.993214488] yes=43,no=44,missing=44
					43:leaf=0.183510736
					44:leaf=0.0301514678
				22:[chi2LocalPosition<4.12429523] yes=45,no=46,missing=46
					45:leaf=0.293956816
					46:leaf=0.0972087383
	2:[glbTrackProbability<10.3694715] yes=5,no=6,missing=6
		5:[nLostHitsOuter<1] yes=11,no=12,missing=12
			11:[pt<5.48594952] yes=23,no=24,missing=24
				23:[nPixels<3] yes=47,no=48,missing=48
					47:leaf=-0.33099997
					48:leaf=-0.0885032266
				24:[chi2LocalPosition<9.66284847] yes=49,no=50,missing=50
					49:leaf=0.199414298
					50:leaf=-0.140765399
			12:[chi2LocalPosition<1.465994] yes=25,no=26,missing=26
				25:[nLostHitsOuter<2] yes=51,no=52,missing=52
					51:leaf=-0.155802399
					52:leaf=-0.33964929
				26:[nValidHits<19] yes=53,no=54,missing=54
					53:leaf=-0.360290527
					54:leaf=-0.420154959
		6:[nLostHitsOuter<1] yes=13,no=14,missing=14
			13:[trkKink<26.010458] yes=27,no=28,missing=28
				27:[match2_pullY<1.2238909] yes=55,no=56,missing=56
					55:leaf=-0.0359396785
					56:leaf=-0.242080107
				28:[glbTrackProbability<21.1163578] yes=57,no=58,missing=58
					57:leaf=-0.243786559
					58:leaf=-0.335128248
			14:[glbTrackProbability<210.268768] yes=29,no=30,missing=30
				29:[pt<2.6417079] yes=59,no=60,missing=60
					59:leaf=-0.317619026
					60:leaf=-0.389839441
				30:[nValidHits<9] yes=61,no=62,missing=62
					61:leaf=-0
					62:leaf=-0.287781417
booster[3]:
0:[trkKink<14.1229534] yes=1,no=2,missing=2
	1:[nLostHitsOuter<1] yes=3,no=4,missing=4
		3:[pt<4.47338724] yes=7,no=8,missing=8
			7:[nLostHitsInner<1] yes=15,no=16,missing=16
				15:[chi2LocalPosition<3.73601604] yes=31,no=32,missing=32
					31:leaf=0.115202874
					32:leaf=-0.052561678
				16:[pt<3.01701355] yes=33,no=34,missing=34
					33:leaf=-0.281421751
					34:leaf=-0.0722690895
			8:[chi2LocalPosition<9.66284847] yes=17,no=18,missing=18
				17:[pt<6.62003613] yes=35,no=36,missing=36
					35:leaf=0.203183085
					36:leaf=0.299759209
				18:[match1_pullX<1.79550171] yes=37,no=38,missing=38
					37:leaf=0.104417317
					38:leaf=-0.201109469
		4:[chi2LocalPosition<3.20772481] yes=9,no=10,missing=10
			9:[pt<4.42132711] yes=19,no=20,missing=20
				19:[chi2LocalPosition<0.00384560646] yes=39,no=40,missing=40
					39:leaf=-0.200084671
					40:leaf=-0.0907938704
				20:[nLostHitsOuter<3] yes=41,no=42,missing=42
					41:leaf=0.126978368
					42:leaf=-0.155179694
			10:[glbTrackProbability<1.13901997] yes=21,no=22,missing=22
				21:[nPixels<5] yes=43,no=44,missing=44
					43:leaf=-0.172496393
					44:leaf=-0.311672866
				22:[nValidHits<19] yes=45,no=46,missing=46
					45:leaf=-0.320575237
					46:leaf=-0.403359681
	2:[trkKink<45.4429741] yes=5,no=6,missing=6
		5:[trkValidFrac<0.933333337] yes=11,no=12,missing=12
			11:[trkValidFrac<0.875] yes=23,no=24,missing=24
				23:[chi2LocalPosition<0.00384560646] yes=47,no=48,missing=48
					47:leaf=-0.206926301
					48:leaf=-0.313205034
				24:[nLostHitsOn<1] yes=49,no=50,missing=50
					49:leaf=-0.276283532
					50:leaf=-0.14109461
			12:[pt<3.30510616] yes=25,no=26,missing=26
				25:[glbTrackProbability<5.58340502] yes=51,no=52,missing=52
					51:leaf=-0.085238941
					52:leaf=-0.182559446
				26:[chi2LocalPosition<3.48914313] yes=53,no=54,missing=54
					53:leaf=0.0548125431
					54:leaf=-0.14081198
		6:[glbTrackProbability<19.8728962] yes=13,no=14,missing=14
			13:[trkValidFrac<0.964285731] yes=27,no=28,missing=28
				27:[pt<8.01615334] yes=55,no=56,missing=56
					55:leaf=-0.242214352
					56:leaf=-0.0315375887
				28:[glbTrackProbability<0.00347998762] yes=57,no=58,missing=58
					57:leaf=-0.231428459
					58:leaf=-0.110784553
			14:[glbTrackProbability<37.6739845] yes=29,no=30,missing=30
				29:[pt<4.25556946] yes=59,no=60,missing=60
					59:leaf=-0.28617546
					60:leaf=-0.215047747
				30:[nValidHits<7] yes=61,no=62,missing=62
					61:leaf=-0.124428049
					62:leaf=-0.324797392
booster[4]:
0:[glbTrackProbability<2.99922585] yes=1,no=2,missing=2
	1:[chi2LocalPosition<0.00384560646] yes=3,no=4,missing=4
		3:[trkKink<8.39722538] yes=7,no=8,missing=8
			7:[match1_pullY<1.012941] yes=15,no=16,missing=16
				15:[match1_pullY<-2.6048367] yes=31,no=32,missing=32
					31:leaf=-0.281908751
					32:leaf=0.0666143671
				16:[match2_pullY<1.35181868] yes=33,no=34,missing=34
					33:leaf=0.00547815906
					34:leaf=-0.143629342
			8:[trkKink<26.010458] yes=17,no=18,missing=18
				17:[match1_pullY<1.0302695] yes=35,no=36,missing=36
					35:leaf=-0.0362608954
					36:leaf=-0.133592829
				18:[trkKink<76.6788406] yes=37,no=38,missing=38
					37:leaf=-0.156623363
					38:leaf=-0.226610646
		4:[pt<3.20529032] yes=9,no=10,missing=10
			9:[nLostHitsInner<1] yes=19,no=20,missing=20
				19:[glbTrackProbability<0.500831127] yes=39,no=40,missing=40
					39:leaf=0.115905501
					40:leaf=0.0143193481
				20:[nLostHitsInner<2] yes=41,no=42,missing=42
					41:leaf=-0.16454947
					42:leaf=-0.299075156
			10:[trkValidFrac<0.846153855] yes=21,no=22,missing=22
				21:[pt<9.31957054] yes=43,no=44,missing=44
					43:leaf=-0.20031403
					44:leaf=0.250386357
				22:[chi2LocalPosition<3.20772481] yes=45,no=46,missing=46
					45:leaf=0.193634719
					46:leaf=0.0599813536
	2:[nLostHitsOuter<1] yes=5,no=6,missing=6
		5:[glbTrackProbability<9.27309513] yes=11,no=12,missing=12
			11:[pt<5.96181917] yes=23,no=24,missing=24
				23:[chi2LocalPosition<2.43960047] yes=47,no=48,missing=48
					47:leaf=-0.0180006381
					48:leaf=-0.120366015
				24:[chi2LocalPosition<3.02313542] yes=49,no=50,missing=50
					49:leaf=0.198109865
					50:leaf=0.0316106714
			12:[trkKink<24.4740314] yes=25,no=26,missing=26
				25:[match1_pullX<1.21839333] yes=51,no=52,missing=52
					51:leaf=-0.0304964557
					52:leaf=-0.185004294
				26:[glbTrackProbability<25.5711746] yes=53,no=54,missing=54
					53:leaf=-0.159124255
					54:leaf=-0.254913568
		6:[chi2LocalPosition<1.97999406] yes=13,no=14,missing=14
			13:[pt<6.03305817] yes=27,no=28,missing=28
				27:[nLostHitsOuter<2] yes=55,no=56,missing=56
					55:leaf=-0.166561022
					56:leaf=-0.277850002
				28:[nLostHitsOuter<2] yes=57,no=58,missing=58
					57:leaf=0.117677286
					58:leaf=-0.167610914
			14:[nPixels<2] yes=29,no=30,missing=30
				29:[match1_pullY<-3.33223939] yes=59,no=60,missing=60
					59:leaf=0.325815409
					60:leaf=-0.0631690621
				30:[nValidHits<12] yes=61,no=62,missing=62
					61:leaf=-0.256330103
					62:leaf=-0.312789023
booster[5]:
0:[trkKink<12.2646217] yes=1,no=2,missing=2
	1:[trkValidFrac<0.882352948] yes=3,no=4,missing=4
		3:[nValidHits<15] yes=7,no=8,missing=8
			7:[trkValidFrac<0.826086938] yes=15,no=16,missing=16
				15:[glbTrackProbability<0.764456153] yes=31,no=32,missing=32
					31:leaf=-0.13011013
					32:leaf=-0.212770805
				16:[chi2LocalPosition<9.66284847] yes=33,no=34,missing=34
					33:leaf=0.0777627975
					34:leaf=-0.202855662
			8:[pt<7.33731794] yes=17,no=18,missing=18
				17:[nLostHitsOn<3] yes=35,no=36,missing=36
					35:leaf=-0.250626206
					36:leaf=0.00952782575
				18:[nLostHitsOuter<2] yes=37,no=38,missing=38
					37:leaf=0.211022317
					38:leaf=-0.263461918
		4:[chi2LocalPosition<4.90569973] yes=9,no=10,missing=10
			9:[pt<3.24972773] yes=19,no=20,missing=20
				19:[nLostHitsInner<1] yes=39,no=40,missing=40
					39:leaf=0.0389337577
					40:leaf=-0.150331646
				20:[pt<5.76624012] yes=41,no=42,missing=42
					41:leaf=0.112658732
					42:leaf=0.221699923
			10:[match1_dY<-13.5252399] yes=21,no=22,missing=22
				21:[nValidHits<23] yes=43,no=44,missing=44
					43:leaf=0.145383865
					44:leaf=-0.128952056
				22:[nLostHitsOuter<1] yes=45,no=46,missing=46
					45:leaf=-0.0687647611
					46:leaf=-0.269215077
	2:[glbTrackProbability<12.161047] yes=5,no=6,missing=6
		5:[pt<6.18198729] yes=11,no=12,missing=12
			11:[trkValidFrac<0.969696999] yes=23,no=24,missing=24
				23:[nPixels<3] yes=47,no=48,missing=48
					47:leaf=-0.234257534
					48:leaf=-0.0984777659
				24:[pt<2.86158419] yes=49,no=50,missing=50
					49:leaf=-0.063353762
					50:leaf=0.00706243189
			12:[pt<9.31957054] yes=25,no=26,missing=26
				25:[chi2LocalPosition<4.01806498] yes=51,no=52,missing=52
					51:leaf=0.11328245
					52:leaf=-0.0486876257
				26:[chi2LocalPosition<7.8986063] yes=53,no=54,missing=54
					53:leaf=0.239211217
					54:leaf=-0.000579796499
		6:[pt<5.76624012] yes=13,no=14,missing=14
			13:[trkValidFrac<0.928571403] yes=27,no=28,missing=28
				27:[chi2LocalPosition<87.6676636] yes=55,no=56,missing=56
					55:leaf=-0.258764148
					56:leaf=0.00717552286
				28:[trkKink<102.193146] yes=57,no=58,missing=58
					57:leaf=-0.156961843
					58:leaf=-0.248473644
			14:[chi2LocalPosition<3.82434678] yes=29,no=30,missing=30
				29:[trkKink<45.4429741] yes=59,no=60,missing=60
					59:leaf=0.195754513
					60:leaf=-0.0104612838
				30:[nPixels<2] yes=61,no=62,missing=62
					61:leaf=0.149806887
					62:leaf=-0.195592239
booster[6]:
0:[glbTrackProbability<2.07164884] yes=1,no=2,missing=2
	1:[chi2LocalPosition<0.00384560646] yes=3,no=4,missing=4
		3:[match1_pullX<-1.62274337] yes=7,no=8,missing=8
			7:[match1_dX<-36.7386665] yes=15,no=16,missing=16
				15:[match1_pullX<-2.15547228] yes=31,no=32,missing=32
					31:leaf=-0.174686193
					32:leaf=-0.00593598187
				16:[pt<2.45800734] yes=33,no=34,missing=34
					33:leaf=-0.204349756
					34:leaf=-0.359491199
			8:[match1_pullX<1.12721252] yes=17,no=18,missing=18
				17:[pt<3.220474] yes=35,no=36,missing=36
					35:leaf=-0.0243206751
					36:leaf=0.0758509636
				18:[match1_dX<24.4387169] yes=37,no=38,missing=38
					37:leaf=-0.21721518
					38:leaf=-0.060072355
		4:[pt<4.79363298] yes=9,no=10,missing=10
			9:[nPixels<2] yes=19,no=20,missing=20
				19:[trkValidFrac<0.939393938] yes=39,no=40,missing=40
					39:leaf=-0.224565163
					40:leaf=-0.46573329
				20:[glbTrackProbability<0.352648765] yes=41,no=42,missing=42
					41:leaf=0.109383143
					42:leaf=0.0349263847
			10:[pt<7.19656563] yes=21,no=22,missing=22
				21:[glbTrackProbability<0.605025232] yes=43,no=44,missing=44
					43:leaf=0.176277548
					44:leaf=0.0940158144
				22:[nPixels<1] yes=45,no=46,missing=46
					45:leaf=-0.0530668646
					46:leaf=0.223252624
	2:[nLostHitsOuter<1] yes=5,no=6,missing=6
		5:[pt<7.19656563] yes=11,no=12,missing=12
			11:[chi2LocalPosition<2.07449865] yes=23,no=24,missing=24
				23:[nPixels<3] yes=47,no=48,missing=48
					47:leaf=-0.23638542
					48:leaf=-0.00817581639
				24:[nValidHits<21] yes=49,no=50,missing=50
					49:leaf=-0.0597140007
					50:leaf=-0.164204791
			12:[match2_pullX<1.72317672] yes=25,no=26,missing=26
				25:[pt<9.69375324] yes=51,no=52,missing=52
					51:leaf=0.123939812
					52:leaf=0.232924655
				26:[chi2LocalPosition<13.7145319] yes=53,no=54,missing=54
					53:leaf=0.0828152001
					54:leaf=-0.138223439
		6:[chi2LocalPosition<2.14098001] yes=13,no=14,missing=14
			13:[nLostHitsOuter<2] yes=27,no=28,missing=28
				27:[pt<4.92968178] yes=55,no=56,missing=56
					55:leaf=-0.121719465
					56:leaf=0.0101687722
				28:[match1_dX<29.1407471] yes=57,no=58,missing=58
					57:leaf=-0.235572726
					58:leaf=-0.058274772
			14:[nLostHitsInner<1] yes=29,no=30,missing=30
				29:[nValidHits<13] yes=59,no=60,missing=60
					59:leaf=-0.196699932
					60:leaf=-0.260650516
				30:[match1_dY<-20.1232452] yes=61,no=62,missing=62
					61:leaf=0.224929437
					62:leaf=-0.101338796
booster[7]:
0:[trkValidFrac<0.970588207] yes=1,no=2,missing=2
	1:[nLostHitsOn<1] yes=3,no=4,missing=4
		3:[pt<6.8298254] yes=7,no=8,missing=8
			7:[eta<1.45458984] yes=15,no=16,missing=16
				15:[eta<-1.34936523] yes=31,no=32,missing=32
					31:leaf=-0.155014694
					32:leaf=-0.0495965742
				16:[chi2LocalPosition<1.53261578] yes=33,no=34,missing=34
					33:leaf=-0.14837639
					34:leaf=-0.219406918
			8:[nLostHitsOuter<2] yes=17,no=18,missing=18
				17:[match2_pullX<2.01537228] yes=35,no=36,missing=36
					35:leaf=0.169303924
					36:leaf=0.0117259892
				18:[chi2LocalPosition<2.85720658] yes=37,no=38,missing=38
					37:leaf=-0
					38:leaf=-0.228388101
		4:[trkKink<23.7690678] yes=9,no=10,missing=10
			9:[nPixels<2] yes=19,no=20,missing=20
				19:[pt<7.64880848] yes=39,no=40,missing=40
					39:leaf=-0.249928579
					40:leaf=0.0863692015
				20:[trkKink<7.26607752] yes=41,no=42,missing=42
					41:leaf=0.0644586831
					42:leaf=-0.010257923
			10:[glbTrackProbability<16.8722115] yes=21,no=22,missing=22
				21:[nPixels<3] yes=43,no=44,missing=44
					43:leaf=-0.164131492
					44:leaf=-0.0696397349
				22:[nValidHits<9] yes=45,no=46,missing=46
					45:leaf=0.0467037968
					46:leaf=-0.183607534
	2:[trkKink<9.08631611] yes=5,no=6,missing=6
		5:[match2_pullY<0.97484374] yes=11,no=12,missing=12
			11:[pt<2.86158419] yes=23,no=24,missing=24
				23:[match1_pullX<1.32656896] yes=47,no=48,missing=48
					47:leaf=0.0615438297
					48:leaf=-0.00037485853
				24:[chi2LocalPosition<2.14098001] yes=49,no=50,missing=50
					49:leaf=0.139511034
					50:leaf=0.0599303097
			12:[match1_pullY<1.59422243] yes=25,no=26,missing=26
				25:[match1_pullDxDz<1.96528637] yes=51,no=52,missing=52
					51:leaf=0.0622367561
					52:leaf=-0.115467362
				26:[nValidHits<22] yes=53,no=54,missing=54
					53:leaf=-0.0371436961
					54:leaf=-0.188824877
		6:[trkKink<55.3382301] yes=13,no=14,missing=14
			13:[pt<5.43453217] yes=27,no=28,missing=28
				27:[nValidHits<21] yes=55,no=56,missing=56
					55:leaf=0.0179336574
					56:leaf=-0.0370385796
				28:[chi2LocalPosition<2.21087837] yes=57,no=58,missing=58
					57:leaf=0.121698916
					58:leaf=0.0253090523
			14:[glbTrackProbability<34.5493126] yes=29,no=30,missing=30
				29:[pt<3.78757811] yes=59,no=60,missing=60
					59:leaf=-0.128645256
					60:leaf=-0.0195373222
				30:[chi2LocalPosition<56.6024895] yes=61,no=62,missing=62
					61:leaf=-0.233361632
					62:leaf=-0
booster[8]:
0:[glbTrackProbability<6.45811558] yes=1,no=2,missing=2
	1:[pt<3.81967473] yes=3,no=4,missing=4
		3:[nPixels<3] yes=7,no=8,missing=8
			7:[nValidHits<18] yes=15,no=16,missing=16
				15:[nPixels<2] yes=31,no=32,missing=32
					31:leaf=-0.150389716
					32:leaf=-0.0459460393
				16:[glbTrackProbability<0.0414285734] yes=33,no=34,missing=34
					33:leaf=-0.138723359
					34:leaf=-0.227685824
			8:[match1_pullY<0.96327889] yes=17,no=18,missing=18
				17:[match1_pullX<1.62503028] yes=35,no=36,missing=36
					35:leaf=0.0264099594
					36:leaf=-0.12245857
				18:[match2_pullY<1.51456809] yes=37,no=38,missing=38
					37:leaf=-0.00340358284
					38:leaf=-0.0845160335
		4:[pt<8.22421265] yes=9,no=10,missing=10
			9:[nLostHitsOuter<1] yes=19,no=20,missing=20
				19:[chi2LocalPosition<0.00384560646] yes=39,no=40,missing=40
					39:leaf=-0.0345799401
					40:leaf=0.0745655149
				20:[chi2LocalPosition<2.61199164] yes=41,no=42,missing=42
					41:leaf=-0.0220195092
					42:leaf=-0.156988874
			10:[pt<11.3202848] yes=21,no=22,missing=22
				21:[nPixels<2] yes=43,no=44,missing=44
					43:leaf=-0.114033021
					44:leaf=0.149253741
				22:[match1_pullX<-1.79495811] yes=45,no=46,missing=46
					45:leaf=0.0585881993
					46:leaf=0.216473237
	2:[chi2LocalPosition<3.1439333] yes=5,no=6,missing=6
		5:[pt<3.95572448] yes=11,no=12,missing=12
			11:[nPixels<3] yes=23,no=24,missing=24
				23:[nValidHits<16] yes=47,no=48,missing=48
					47:leaf=-0.1736601
					48:leaf=-0.24800387
				24:[trkKink<24.4740314] yes=49,no=50,missing=50
					49:leaf=-0.018277498
					50:leaf=-0.0982340127
			12:[pt<9.69375324] yes=25,no=26,missing=26
				25:[trkValidFrac<0.857142866] yes=51,no=52,missing=52
					51:leaf=-0.179449245
					52:leaf=0.0343004763
				26:[trkKink<58.6280785] yes=53,no=54,missing=54
					53:leaf=0.200396314
					54:leaf=0.0286237579
		6:[match1_dY<-15.7426529] yes=13,no=14,missing=14
			13:[match1_dY<-62.1763687] yes=27,no=28,missing=28
				27:[match2_pullY<-2.97021151] yes=55,no=56,missing=56
					55:leaf=-0
					56:leaf=0.204437807
				28:[match1_pullDyDz<0.742424726] yes=57,no=58,missing=58
					57:leaf=-0.0588611402
					58:leaf=0.0416191444
			14:[nLostHitsOuter<1] yes=29,no=30,missing=30
				29:[pt<8.70577526] yes=59,no=60,missing=60
					59:leaf=-0.125352815
					60:leaf=0.0339710601
				30:[pt<2.50618839] yes=61,no=62,missing=62
					61:leaf=0.0366990641
					62:leaf=-0.212968484
booster[9]:
0:[glbTrackProbability<1.5954473] yes=1,no=2,missing=2
	1:[chi2LocalPosition<0.00384560646] yes=3,no=4,missing=4
		3:[nValidHits<20] yes=7,no=8,missing=8
			7:[match1_pullDyDz<-1.38220668] yes=15,no=16,missing=16
				15:[match1_pullY<2.2813983] yes=31,no=32,missing=32
					31:leaf=-0.0607136898
					32:leaf=-0.294547856
				16:[pt<2.82201719] yes=33,no=34,missing=34
					33:leaf=-0.0129806548
					34:leaf=0.0507301949
			8:[pt<2.25663877] yes=17,no=18,missing=18
				17:[pt<2.11212087] yes=35,no=36,missing=36
					35:leaf=0.0468020104
					36:leaf=-0.0174919963
				18:[match1_pullDxDz<-1.92570007] yes=37,no=38,missing=38
					37:leaf=-0.276685327
					38:leaf=-0.099047035
		4:[pt<2.86158419] yes=9,no=10,missing=10
			9:[nLostHitsInner<1] yes=19,no=20,missing=20
				19:[nLostHitsOuter<2] yes=39,no=40,missing=40
					39:leaf=0.0190807842
					40:leaf=-0.174751326
				20:[pt<2.53617096] yes=41,no=42,missing=42
					41:leaf=-0.153777882
					42:leaf=-0.0333310477
			10:[chi2LocalPosition<10.4415112] yes=21,no=22,missing=22
				21:[nPixels<2] yes=43,no=44,missing=44
					43:leaf=-0.129442409
					44:leaf=0.0798379332
				22:[eta<1.22998047] yes=45,no=46,missing=46
					45:leaf=-0.077928789
					46:leaf=-0.257512331
	2:[chi2LocalPosition<2.965307] yes=5,no=6,missing=6
		5:[pt<2.94514585] yes=11,no=12,missing=12
			11:[nPixels<3] yes=23,no=24,missing=24
				23:[match2_dY<21.378479] yes=47,no=48,missing=48
					47:leaf=-0.218957528
					48:leaf=-0.128468588
				24:[trkKink<7.79604578] yes=49,no=50,missing=50
					49:leaf=0.0166987386
					50:leaf=-0.0508492552
			12:[nPixels<2] yes=25,no=26,missing=26
				25:[pt<13.3205967] yes=51,no=52,missing=52
					51:leaf=-0.187926859
					52:leaf=0.127717063
				26:[pt<5.12056875] yes=53,no=54,missing=54
					53:leaf=0.00424146047
					54:leaf=0.0658630133
		6:[match2_dY<-25.6171398] yes=13,no=14,missing=14
			13:[match2_dY<-41.2334099] yes=27,no=28,missing=28
				27:[pt<2.58783865] yes=55,no=56,missing=56
					55:leaf=-0.036573045
					56:leaf=0.158544526
				28:[pt<2.60905385] yes=57,no=58,missing=58
					57:leaf=-0.0702939481
					58:leaf=0.0553576574
			14:[eta<1.46679688] yes=29,no=30,missing=30
				29:[eta<-1.3046875] yes=59,no=60,missing=60
					59:leaf=-0.134960696
					60:leaf=-0.0233550165
				30:[pt<2.59839201] yes=61,no=62,missing=62
					61:leaf=-0.0648610368
					62:leaf=-0.182952315
booster[10]:
0:[nLostHitsOuter<1] yes=1,no=2,missing=2
	1:[trkKink<7.79604578] yes=3,no=4,missing=4
		3:[match1_pullX<-1.5318768] yes=7,no=8,missing=8
			7:[nValidHits<21] yes=15,no=16,missing=16
				15:[match1_pullDxDz<1.02179015] yes=31,no=32,missing=32
					31:leaf=-0.176464975
					32:leaf=-0.0201734845
				16:[match1_pullX<-2.15547228] yes=33,no=34,missing=34
					33:leaf=-0.299391806
					34:leaf=-0.13398318
			8:[match1_pullX<1.21839333] yes=17,no=18,missing=18
				17:[nLostHitsInner<2] yes=35,no=36,missing=36
					35:leaf=0.060414955
					36:leaf=-0.113138452
				18:[nValidHits<21] yes=37,no=38,missing=38
					37:leaf=0.0164640509
					38:leaf=-0.0684416741
		4:[trkKink<62.2827377] yes=9,no=10,missing=10
			9:[eta<1.26611328] yes=19,no=20,missing=20
				19:[eta<-1.21484375] yes=39,no=40,missing=40
					39:leaf=-0.0220036451
					40:leaf=0.0596013628
				20:[match2_dY<7.18582344] yes=41,no=42,missing=42
					41:leaf=-0.00898368843
					42:leaf=-0.07365679
			10:[glbTrackProbability<41.4884415] yes=21,no=22,missing=22
				21:[chi2LocalPosition<0.0113870772] yes=43,no=44,missing=44
					43:leaf=-0.125661239
					44:leaf=-0.0460991412
				22:[chi2LocalPosition<56.6024895] yes=45,no=46,missing=46
					45:leaf=-0.194318146
					46:leaf=0.196789324
	2:[nLostHitsInner<1] yes=5,no=6,missing=6
		5:[chi2LocalPosition<1.60261631] yes=11,no=12,missing=12
			11:[match1_pullX<-1.0857625] yes=23,no=24,missing=24
				23:[nValidHits<15] yes=47,no=48,missing=48
					47:leaf=-0.0694403723
					48:leaf=-0.221383065
				24:[match1_pullDxDz<-1.18983948] yes=49,no=50,missing=50
					49:leaf=-0.139807671
					50:leaf=-0.0412530638
			12:[nValidHits<18] yes=25,no=26,missing=26
				25:[pt<4.12779522] yes=51,no=52,missing=52
					51:leaf=-0.0798161626
					52:leaf=-0.155304447
				26:[pt<2.28971577] yes=53,no=54,missing=54
					53:leaf=-0.0532949939
					54:leaf=-0.209348217
		6:[glbTrackProbability<3.68626952] yes=13,no=14,missing=14
			13:[pt<3.10043693] yes=27,no=28,missing=28
				27:[match1_pullDxDz<3.83723068] yes=55,no=56,missing=56
					55:leaf=-0.0143439919
					56:leaf=0.225470617
				28:[trkValidFrac<0.793103456] yes=57,no=58,missing=58
					57:leaf=0.106293075
					58:leaf=0.271696091
			14:[nPixels<1] yes=29,no=30,missing=30
				29:[chi2LocalPosition<7.06303024] yes=59,no=60,missing=60
					59:leaf=-0
					60:leaf=0.28539893
				30:[glbTrackProbability<122.147446] yes=61,no=62,missing=62
					61:leaf=-0.0466871411
					62:leaf=0.211752817
booster[11]:
0:[match1_pullX<-1.32498157] yes=1,no=2,missing=2
	1:[match2_pullDxDz<-0.0217065345] yes=3,no=4,missing=4
		3:[match2_pullX<0.62875551] yes=7,no=8,missing=8
			7:[pt<2.3759191] yes=15,no=16,missing=16
				15:[match2_pullDxDz<-1.30740225] yes=31,no=32,missing=32
					31:leaf=-0.169695362
					32:leaf=-0.0281740427
				16:[match2_dX<-39.7802048] yes=33,no=34,missing=34
					33:leaf=-0.0142377364
					34:leaf=-0.243695706
			8:[match2_pullDxDz<-3.63632298] yes=17,no=18,missing=18
				17:[pt<5.7058506] yes=35,no=36,missing=36
					35:leaf=-0.3012169
					36:leaf=-0
				18:[glbTrackProbability<0.662910938] yes=37,no=38,missing=38
					37:leaf=0.0798103064
					38:leaf=-0.0103524663
		4:[match1_pullX<-2.15547228] yes=9,no=10,missing=10
			9:[match1_dX<-28.979187] yes=19,no=20,missing=20
				19:[match1_pullDxDz<1.7218318] yes=39,no=40,missing=40
					39:leaf=-0.149737209
					40:leaf=-0.00260379328
				20:[pt<5.12056875] yes=41,no=42,missing=42
					41:leaf=-0.218471542
					42:leaf=-0.0987881646
			10:[match1_dX<-24.3109322] yes=21,no=22,missing=22
				21:[match1_pullDxDz<-0.179778054] yes=43,no=44,missing=44
					43:leaf=-0.127876416
					44:leaf=0.0563547835
				22:[match1_pullDxDz<0.664901972] yes=45,no=46,missing=46
					45:leaf=-0.152233556
					46:leaf=-0.0467477255
	2:[match1_pullX<0.975216508] yes=5,no=6,missing=6
		5:[pt<4.61025572] yes=11,no=12,missing=12
			11:[nLostHitsInner<1] yes=23,no=24,missing=24
				23:[trkKink<23.7690678] yes=47,no=48,missing=48
					47:leaf=0.0236554276
					48:leaf=-0.0387604237
				24:[nLostHitsInner<2] yes=49,no=50,missing=50
					49:leaf=-0.0443700291
					50:leaf=-0.14298816
			12:[pt<8.99749947] yes=25,no=26,missing=26
				25:[trkKink<10.7265491] yes=51,no=52,missing=52
					51:leaf=0.0878973156
					52:leaf=0.0229427777
				26:[chi2LocalPosition<9.00043011] yes=53,no=54,missing=54
					53:leaf=0.156902641
					54:leaf=0.405947536
		6:[chi2LocalPosition<11.3619719] yes=13,no=14,missing=14
			13:[match1_dX<26.5500107] yes=27,no=28,missing=28
				27:[match1_pullX<1.86854458] yes=55,no=56,missing=56
					55:leaf=-0.028596459
					56:leaf=-0.152297929
				28:[eta<1.21020508] yes=57,no=58,missing=58
					57:leaf=0.0287035517
					58:leaf=-0.031451147
			14:[glbTrackProbability<122.147446] yes=29,no=30,missing=30
				29:[pt<2.74650764] yes=59,no=60,missing=60
					59:leaf=0.0338051654
					60:leaf=-0.141546324
				30:[pt<3.74078178] yes=61,no=62,missing=62
					61:leaf=0.358556718
					62:leaf=0.0566332713
booster[12]:
0:[match2_dY<4.16065216] yes=1,no=2,missing=2
	1:[pt<2.65295172] yes=3,no=4,missing=4
		3:[nLostHitsInner<1] yes=7,no=8,missing=8
			7:[match1_pullY<-1.46393323] yes=15,no=16,missing=16
				15:[match1_pullY<-2.12003446] yes=31,no=32,missing=32
					31:leaf=-0.19976984
					32:leaf=-0.0748273954
				16:[trkKink<6.08989716] yes=33,no=34,missing=34
					33:leaf=0.036124032
					34:leaf=-0.00786723103
			8:[glbTrackProbability<1.65445399] yes=17,no=18,missing=18
				17:[eta<-2.17333984] yes=35,no=36,missing=36
					35:leaf=-0
					36:leaf=-0.101156056
				18:[chi2LocalPosition<15.1968603] yes=37,no=38,missing=38
					37:leaf=-0.162150621
					38:leaf=0.0382199511
		4:[glbTrackProbability<0.68731308] yes=9,no=10,missing=10
			9:[match2_pullY<-2.97021151] yes=19,no=20,missing=20
				19:[trkValidFrac<0.939393938] yes=39,no=40,missing=40
					39:leaf=0.0280134771
					40:leaf=-0.329979837
				20:[pt<6.26155806] yes=41,no=42,missing=42
					41:leaf=0.0567610115
					42:leaf=0.128161535
			10:[nLostHitsOuter<2] yes=21,no=22,missing=22
				21:[chi2LocalPosition<0.825535774] yes=43,no=44,missing=44
					43:leaf=0.0456029028
					44:leaf=0.00535751926
				22:[nPixels<5] yes=45,no=46,missing=46
					45:leaf=-0.127224937
					46:leaf=-0.232679859
	2:[eta<-1.25244141] yes=5,no=6,missing=6
		5:[match1_pullY<1.46947694] yes=11,no=12,missing=12
			11:[match1_pullX<-1.8665911] yes=23,no=24,missing=24
				23:[match2_pullDxDz<0.713048398] yes=47,no=48,missing=48
					47:leaf=-0.264334381
					48:leaf=-0.128267422
				24:[match1_pullX<1.94908226] yes=49,no=50,missing=50
					49:leaf=-0.0260832068
					50:leaf=-0.159074202
			12:[pt<2.90257072] yes=25,no=26,missing=26
				25:[match1_pullDyDz<6.92819452] yes=51,no=52,missing=52
					51:leaf=-0.100284234
					52:leaf=-0.0168611184
				26:[eta<-2.39550781] yes=53,no=54,missing=54
					53:leaf=0.140554577
					54:leaf=-0.155305952
		6:[eta<1.18969727] yes=13,no=14,missing=14
			13:[chi2LocalPosition<19.0836487] yes=27,no=28,missing=28
				27:[nPixels<2] yes=55,no=56,missing=56
					55:leaf=-0.109262444
					56:leaf=0.0639105961
				28:[match1_pullDxDz<2.80587554] yes=57,no=58,missing=58
					57:leaf=0.194090649
					58:leaf=-0.122576922
			14:[pt<3.20529032] yes=29,no=30,missing=30
				29:[match2_pullDxDz<-1.78130364] yes=59,no=60,missing=60
					59:leaf=-0.158686548
					60:leaf=-0.0251597259
				30:[match1_pullY<1.69650364] yes=61,no=62,missing=62
					61:leaf=-0.0544377975
					62:leaf=-0.157702804
booster[13]:
0:[pt<7.48849487] yes=1,no=2,missing=2
	1:[match1_pullX<-1.1060487] yes=3,no=4,missing=4
		3:[match2_pullDxDz<-0.238453701] yes=7,no=8,missing=8
			7:[match2_pullY<0.654051781] yes=15,no=16,missing=16
				15:[match2_dX<7.76114464] yes=31,no=32,missing=32
					31:leaf=-0.105805174
					32:leaf=0.00215445622
				16:[match2_dX<20.0300064] yes=33,no=34,missing=34
					33:leaf=-0.208674729
					34:leaf=0.00149181159
			8:[match1_pullX<-2.46970963] yes=17,no=18,missing=18
				17:[match1_dX<-13.5975227] yes=35,no=36,missing=36
					35:leaf=-0.0963959619
					36:leaf=-0.242184311
				18:[match1_dX<-13.5975227] yes=37,no=38,missing=38
					37:leaf=0.00545311486
					38:leaf=-0.0523946472
		4:[match1_pullX<0.834605515] yes=9,no=10,missing=10
			9:[trkValidFrac<0.857142866] yes=19,no=20,missing=20
				19:[nPixels<5] yes=39,no=40,missing=40
					39:leaf=-0.0846643522
					40:leaf=-0.182079062
				20:[pt<2.73436308] yes=41,no=42,missing=42
					41:leaf=-0.00466311025
					42:leaf=0.0304274801
			10:[eta<-1.45800781] yes=21,no=22,missing=22
				21:[chi2LocalPosition<5.24369478] yes=43,no=44,missing=44
					43:leaf=-0.0372343697
					44:leaf=-0.128434122
				22:[eta<1.44189453] yes=45,no=46,missing=46
					45:leaf=0.0158569012
					46:leaf=-0.0443776287
	2:[pt<13.3205967] yes=5,no=6,missing=6
		5:[glbTrackProbability<1.24286747] yes=11,no=12,missing=12
			11:[nPixels<1] yes=23,no=24,missing=24
				23:[trkValidFrac<0.879999995] yes=47,no=48,missing=48
					47:leaf=-0.0191197768
					48:leaf=-0.301037371
				24:[trkKink<11.9926052] yes=49,no=50,missing=50
					49:leaf=0.111419164
					50:leaf=0.0236414764
			12:[chi2LocalPosition<21.6096992] yes=25,no=26,missing=26
				25:[match1_pullX<-1.73075187] yes=51,no=52,missing=52
					51:leaf=-0.0537480675
					52:leaf=0.0476576127
				26:[match1_pullDxDz<10.1856852] yes=53,no=54,missing=54
					53:leaf=0.238501161
					54:leaf=-0.118546806
		6:[pt<18.6034393] yes=13,no=14,missing=14
			13:[match2_pullX<1.92610621] yes=27,no=28,missing=28
				27:[trkKink<47.5633354] yes=55,no=56,missing=56
					55:leaf=0.167235136
					56:leaf=-0
				28:[chi2LocalPosition<16.9897709] yes=57,no=58,missing=58
					57:leaf=0.128718689
					58:leaf=0.00400465354
			14:[nLostHitsOuter<2] yes=29,no=30,missing=30
				29:[match1_dY<-13.5252399] yes=59,no=60,missing=60
					59:leaf=-0
					60:leaf=0.212135389
				30:[trkKink<17.3178101] yes=61,no=62,missing=62
					61:leaf=0.135737747
					62:leaf=0.720487356
booster[14]:
0:[trkKink<6.44639587] yes=1,no=2,missing=2
	1:[glbTrackProbability<0.662910938] yes=3,no=4,missing=4
		3:[match2_pullDxDz<-2.11661267] yes=7,no=8,missing=8
			7:[glbTrackProbability<0.00347998762] yes=15,no=16,missing=16
				15:[trkValidFrac<0.920000017] yes=31,no=32,missing=32
					31:leaf=-0.0127356332
					32:leaf=-0.206973851
				16:[match2_dY<17.0778656] yes=33,no=34,missing=34
					33:leaf=-0.00341505744
					34:leaf=-0.19632405
			8:[match1_pullDxDz<-2.08748579] yes=17,no=18,missing=18
				17:[chi2LocalPosition<0.00384560646] yes=35,no=36,missing=36
					35:leaf=-0.14345175
					36:leaf=-0.00252689607
				18:[pt<3.11505795] yes=37,no=38,missing=38
					37:leaf=0.0190551039
					38:leaf=0.0528425612
		4:[nLostHitsOuter<2] yes=9,no=10,missing=10
			9:[match2_dY<3.26448107] yes=19,no=20,missing=20
				19:[match2_dY<-32.0419312] yes=39,no=40,missing=40
					39:leaf=0.106361158
					40:leaf=0.0173586439
				20:[eta<1.45458984] yes=41,no=42,missing=42
					41:leaf=-0.00723594241
					42:leaf=-0.0578705557
			10:[glbTrackProbability<122.147446] yes=21,no=22,missing=22
				21:[match2_pullDyDz<0.985087395] yes=43,no=44,missing=44
					43:leaf=-0.202092811
					44:leaf=-0.0785691589
				22:[trkValidFrac<0.71875] yes=45,no=46,missing=46
					45:leaf=0.47297737
					46:leaf=0.0228173789
	2:[match2_dY<4.64049911] yes=5,no=6,missing=6
		5:[nPixels<3] yes=11,no=12,missing=12
			11:[nValidHits<18] yes=23,no=24,missing=24
				23:[nPixels<2] yes=47,no=48,missing=48
					47:leaf=-0.101249568
					48:leaf=-0.0130972164
				24:[glbTrackProbability<0.109218948] yes=49,no=50,missing=50
					49:leaf=-0.0452474505
					50:leaf=-0.166387409
			12:[trkKink<58.6280785] yes=25,no=26,missing=26
				25:[match2_pullX<-1.62011659] yes=51,no=52,missing=52
					51:leaf=-0.057199236
					52:leaf=0.0118500702
				26:[glbTrackProbability<29.4831028] yes=53,no=54,missing=54
					53:leaf=-0.0267871469
					54:leaf=-0.145658582
		6:[match2_pullDxDz<-2.01150918] yes=13,no=14,missing=14
			13:[chi2LocalPosition<0.0113870772] yes=27,no=28,missing=28
				27:[trkValidFrac<0.866666675] yes=55,no=56,missing=56
					55:leaf=0.0385198444
					56:leaf=-0.205302581
				28:[match1_pullX<0.595095515] yes=57,no=58,missing=58
					57:leaf=-0.142996863
					58:leaf=-0.0460277498
			14:[eta<-1.19458008] yes=29,no=30,missing=30
				29:[pt<2.12029624] yes=59,no=60,missing=60
					59:leaf=0.0311480779
					60:leaf=-0.0444965661
				30:[eta<1.05249023] yes=61,no=62,missing=62
					61:leaf=0.0256527774
					62:leaf=-0.0348886997
booster[15]:
0:[nLostHitsOuter<1] yes=1,no=2,missing=2
	1:[nPixels<3] yes=3,no=4,missing=4
		3:[chi2LocalPosition<9.00043011] yes=7,no=8,missing=8
			7:[pt<12.1633654] yes=15,no=16,missing=16
				15:[nPixels<2] yes=31,no=32,missing=32
					31:leaf=-0.0950259939
					32:leaf=-0.0402136296
				16:[nLostHitsInner<1] yes=33,no=34,missing=34
					33:leaf=0.0788415149
					34:leaf=0.228184402
			8:[glbTrackProbability<29.4831028] yes=17,no=18,missing=18
				17:[trkValidFrac<0.879999995] yes=35,no=36,missing=36
					35:leaf=0.111747339
					36:leaf=-0.00309228688
				18:[trkValidFrac<0.923076928] yes=37,no=38,missing=38
					37:leaf=0.327667654
					38:leaf=0.105056398
		4:[match1_pullY<-3.33223939] yes=9,no=10,missing=10
			9:[match1_dY<-45.403862] yes=19,no=20,missing=20
				19:[pt<3.15971017] yes=39,no=40,missing=40
					39:leaf=0.0304419193
					40:leaf=-0.190790594
				20:[nValidHits<16] yes=41,no=42,missing=42
					41:leaf=-0.110093981
					42:leaf=-0.322352797
			10:[match1_pullX<-1.94695485] yes=21,no=22,missing=22
				21:[match1_pullDxDz<1.47745061] yes=43,no=44,missing=44
					43:leaf=-0.149845317
					44:leaf=-0.0495293438
				22:[pt<6.62003613] yes=45,no=46,missing=46
					45:leaf=0.00583923468
					46:leaf=0.0583036281
	2:[nLostHitsInner<1] yes=5,no=6,missing=6
		5:[nValidHits<13] yes=11,no=12,missing=12
			11:[trkValidFrac<0.804878056] yes=23,no=24,missing=24
				23:[match1_pullDxDz<3.18387866] yes=47,no=48,missing=48
					47:leaf=-0.0868226364
					48:leaf=0.0253269877
				24:[chi2LocalPosition<9.00043011] yes=49,no=50,missing=50
					49:leaf=0.167919904
					50:leaf=-0.00762582012
			12:[pt<2.16051936] yes=25,no=26,missing=26
				25:[match1_pullY<-0.81024617] yes=51,no=52,missing=52
					51:leaf=-0.0611724183
					52:leaf=0.0507277437
				26:[nLostHitsOuter<2] yes=53,no=54,missing=54
					53:leaf=-0.0631362051
					54:leaf=-0.121483475
		6:[trkKink<10.1633053] yes=13,no=14,missing=14
			13:[nValidHits<23] yes=27,no=28,missing=28
				27:[chi2LocalPosition<7.8986063] yes=55,no=56,missing=56
					55:leaf=0.180164158
					56:leaf=0.0622096173
				28:[match2_dX<-2.67007446] yes=57,no=58,missing=58
					57:leaf=-0.118330263
					58:leaf=-0
			14:[glbTrackProbability<51.8138618] yes=29,no=30,missing=30
				29:[glbTrackProbability<7.31739473] yes=59,no=60,missing=60
					59:leaf=0.0752647817
					60:leaf=-0.00323914923
				30:[match1_pullDyDz<0.502152324] yes=61,no=62,missing=62
					61:leaf=-0
					62:leaf=0.249538407
booster[16]:
0:[eta<1.44189453] yes=1,no=2,missing=2
	1:[eta<-0.891479492] yes=3,no=4,missing=4
		3:[match2_dY<6.55444336] yes=7,no=8,missing=8
			7:[match2_pullX<-2.01468658] yes=15,no=16,missing=16
				15:[match2_pullDxDz<1.18008435] yes=31,no=32,missing=32
					31:leaf=-0.205615208
					32:leaf=-0.0536608733
				16:[match2_pullX<1.78339624] yes=33,no=34,missing=34
					33:leaf=0.0125052882
					34:leaf=-0.0775895715
			8:[match2_pullDxDz<-1.84766054] yes=17,no=18,missing=18
				17:[match2_dX<16.7263927] yes=35,no=36,missing=36
					35:leaf=-0.186525539
					36:leaf=-0.0737408996
				18:[pt<3.30510616] yes=37,no=38,missing=38
					37:leaf=-0.00960898306
					38:leaf=-0.0501034819
		4:[chi2LocalPosition<19.0836487] yes=9,no=10,missing=10
			9:[chi2LocalPosition<0] yes=19,no=20,missing=20
				19:[trkValidFrac<0.92592591] yes=39,no=40,missing=40
					39:leaf=0.0209059846
					40:leaf=-0.565352798
				20:[nPixels<2] yes=41,no=42,missing=42
					41:leaf=-0.0769668221
					42:leaf=0.0378430933
			10:[match2_pullX<2.01537228] yes=21,no=22,missing=22
				21:[match2_pullX<-1.45670354] yes=43,no=44,missing=44
					43:leaf=-0.0196414478
					44:leaf=0.203165472
				22:[match1_pullX<2.46947336] yes=45,no=46,missing=46
					45:leaf=0.0545491055
					46:leaf=-0.118532725
	2:[eta<2.03808594] yes=5,no=6,missing=6
		5:[pt<2.13652444] yes=11,no=12,missing=12
			11:[nLostHitsInner<1] yes=23,no=24,missing=24
				23:[nPixels<3] yes=47,no=48,missing=48
					47:leaf=-0.168911025
					48:leaf=0.0419011191
				24:[match1_pullDyDz<2.41911697] yes=49,no=50,missing=50
					49:leaf=-0.128351986
					50:leaf=0.016818881
			12:[match2_pullDyDz<-0.79334265] yes=25,no=26,missing=26
				25:[match2_pullY<1.75222003] yes=51,no=52,missing=52
					51:leaf=-0.0595646575
					52:leaf=-0.182695255
				26:[match1_dY<5.77381134] yes=53,no=54,missing=54
					53:leaf=-0.0187394153
					54:leaf=-0.0581671111
		6:[match1_pullY<-1.6600244] yes=13,no=14,missing=14
			13:[match1_pullY<-2.12003446] yes=27,no=28,missing=28
				27:[nValidHits<16] yes=55,no=56,missing=56
					55:leaf=-0.0869995505
					56:leaf=-0.256033689
				28:[match2_pullY<-1.59239781] yes=57,no=58,missing=58
					57:leaf=-0.0338598602
					58:leaf=-0.122696482
			14:[match2_pullY<-2.20486236] yes=29,no=30,missing=30
				29:[trkKink<13.9222555] yes=59,no=60,missing=60
					59:leaf=-0.217818812
					60:leaf=-0
				30:[glbTrackProbability<0.172719195] yes=61,no=62,missing=62
					61:leaf=0.0445304215
					62:leaf=0.0063732788
booster[17]:
0:[trkKink<5.2975359] yes=1,no=2,missing=2
	1:[glbTrackProbability<0.239374965] yes=3,no=4,missing=4
		3:[match1_pullDyDz<-2.119488] yes=7,no=8,missing=8
			7:[match1_pullY<2.87474489] yes=15,no=16,missing=16
				15:[match2_pullDxDz<0.862724662] yes=31,no=32,missing=32
					31:leaf=0.0459169745
					32:leaf=-0.0749616325
				16:[trkValidFrac<0.892857134] yes=33,no=34,missing=34
					33:leaf=0.0721469969
					34:leaf=-0.33223325
			8:[match2_pullDxDz<-1.62097633] yes=17,no=18,missing=18
				17:[match1_pullDxDz<-0.436639041] yes=35,no=36,missing=36
					35:leaf=0.0198956095
					36:leaf=-0.088101469
				18:[nPixels<3] yes=37,no=38,missing=38
					37:leaf=-0.0264435597
					38:leaf=0.0412681773
		4:[chi2LocalPosition<1.42263258] yes=9,no=10,missing=10
			9:[nLostHitsInner<4] yes=19,no=20,missing=20
				19:[pt<5.82858753] yes=39,no=40,missing=40
					39:leaf=0.0191597007
					40:leaf=0.068419531
				20:[eta<2.08007812] yes=41,no=42,missing=42
					41:leaf=-0.154914469
					42:leaf=-0
			10:[match2_dY<-22.4763641] yes=21,no=22,missing=22
				21:[match2_dY<-41.2334099] yes=43,no=44,missing=44
					43:leaf=0.100070201
					44:leaf=0.0334356762
				22:[glbTrackProbability<88.1629486] yes=45,no=46,missing=46
					45:leaf=-0.0248677135
					46:leaf=0.163370103
	2:[match2_pullX<-1.39042485] yes=5,no=6,missing=6
		5:[match2_pullDxDz<0.378331453] yes=11,no=12,missing=12
			11:[match2_dX<-50.0006104] yes=23,no=24,missing=24
				23:[pt<3.69530129] yes=47,no=48,missing=48
					47:leaf=0.0667490885
					48:leaf=-0.11701151
				24:[pt<2.54643273] yes=49,no=50,missing=50
					49:leaf=-0.0693903491
					50:leaf=-0.188193068
			12:[chi2LocalPosition<1.28166258] yes=25,no=26,missing=26
				25:[match2_pullDxDz<2.73758888] yes=51,no=52,missing=52
					51:leaf=-0.063522473
					52:leaf=-0.201858655
				26:[match1_dX<-8.95616722] yes=53,no=54,missing=54
					53:leaf=0.018830847
					54:leaf=-0.0289947726
		6:[pt<10.6646013] yes=13,no=14,missing=14
			13:[match1_pullDxDz<-2.00201559] yes=27,no=28,missing=28
				27:[match2_dX<6.20210266] yes=55,no=56,missing=56
					55:leaf=0.00825374108
					56:leaf=-0.0743395463
				28:[trkKink<52.5143623] yes=57,no=58,missing=58
					57:leaf=-0.000792396895
					58:leaf=-0.0486462489
			14:[pt<15.0799208] yes=29,no=30,missing=30
				29:[trkKink<10.2531624] yes=59,no=60,missing=60
					59:leaf=0.0947586671
					60:leaf=0.0251949765
				30:[trkValidFrac<0.923076928] yes=61,no=62,missing=62
					61:leaf=0.211697891
					62:leaf=0.125755847
booster[18]:
0:[glbTrackProbability<1.3104955] yes=1,no=2,missing=2
	1:[chi2LocalPosition<0.00384560646] yes=3,no=4,missing=4
		3:[match1_pullDyDz<-1.98517871] yes=7,no=8,missing=8
			7:[match1_pullY<2.50658941] yes=15,no=16,missing=16
				15:[match2_pullDxDz<1.64525867] yes=31,no=32,missing=32
					31:leaf=-0.0160568729
					32:leaf=-0.109293334
				16:[trkValidFrac<0.869565189] yes=33,no=34,missing=34
					33:leaf=0.0789556354
					34:leaf=-0.268608063
			8:[match2_pullX<-1.66921687] yes=17,no=18,missing=18
				17:[trkValidFrac<0.896551728] yes=35,no=36,missing=36
					35:leaf=0.0280795079
					36:leaf=-0.140409797
				18:[match2_pullDxDz<-1.57712591] yes=37,no=38,missing=38
					37:leaf=-0.0826238319
					38:leaf=0.000873548503
		4:[glbTrackProbability<0.124146663] yes=9,no=10,missing=10
			9:[nLostHitsInner<1] yes=19,no=20,missing=20
				19:[pt<2.57723522] yes=39,no=40,missing=40
					39:leaf=0.0245051626
					40:leaf=0.0663349852
				20:[pt<5.04108238] yes=41,no=42,missing=42
					41:leaf=-0.0420973301
					42:leaf=0.0718808025
			10:[pt<5.43453217] yes=21,no=22,missing=22
				21:[nLostHitsInner<1] yes=43,no=44,missing=44
					43:leaf=0.00820105243
					44:leaf=-0.0365881249
				22:[pt<10.6646013] yes=45,no=46,missing=46
					45:leaf=0.0370270647
					46:leaf=0.10320472
	2:[match1_dY<-11.8172836] yes=5,no=6,missing=6
		5:[eta<1.6496582] yes=11,no=12,missing=12
			11:[pt<3.35790682] yes=23,no=24,missing=24
				23:[eta<-1.58959961] yes=47,no=48,missing=48
					47:leaf=-0.0850972384
					48:leaf=0.0976230428
				24:[match1_pullY<-1.79654706] yes=49,no=50,missing=50
					49:leaf=0.062460091
					50:leaf=0.0144128464
			12:[chi2LocalPosition<34.227108] yes=25,no=26,missing=26
				25:[chi2LocalPosition<4.01806498] yes=51,no=52,missing=52
					51:leaf=-0.0117972801
					52:leaf=-0.189817503
				26:leaf=-0
		6:[eta<-2.15820312] yes=13,no=14,missing=14
			13:[match1_pullY<-1.32080615] yes=27,no=28,missing=28
				27:[match1_pullY<-1.88315976] yes=55,no=56,missing=56
					55:leaf=-0.148292184
					56:leaf=-0.0409013182
				28:[nLostHitsOuter<1] yes=57,no=58,missing=58
					57:leaf=0.040237844
					58:leaf=-0.0920473114
			14:[eta<-1.48193359] yes=29,no=30,missing=30
				29:[chi2LocalPosition<56.6024895] yes=59,no=60,missing=60
					59:leaf=-0.038417656
					60:leaf=0.26866743
				30:[eta<0.885864258] yes=61,no=62,missing=62
					61:leaf=0.00862887688
					62:leaf=-0.024003135
booster[19]:
0:[match1_pullX<-0.958216429] yes=1,no=2,missing=2
	1:[match1_pullDxDz<0.521708965] yes=3,no=4,missing=4
		3:[match1_dX<-54.7609215] yes=7,no=8,missing=8
			7:[pt<3.42103529] yes=15,no=16,missing=16
				15:[match1_dY<-14.9321938] yes=31,no=32,missing=32
					31:leaf=-0
					32:leaf=0.113629878
				16:[trkKink<7.0393486] yes=33,no=34,missing=34
					33:leaf=0.0277149491
					34:leaf=-0.0497463532
			8:[match2_pullDxDz<-0.959059477] yes=17,no=18,missing=18
				17:[pt<2.35821271] yes=35,no=36,missing=36
					35:leaf=-0.0295060221
					36:leaf=-0.179090157
				18:[match1_pullDxDz<0.0396847278] yes=37,no=38,missing=38
					37:leaf=-0.100959793
					38:leaf=-0.0526377857
		4:[match1_pullX<-2.29489279] yes=9,no=10,missing=10
			9:[match1_pullDxDz<1.96528637] yes=19,no=20,missing=20
				19:[match1_dY<53.6399994] yes=39,no=40,missing=40
					39:leaf=-0.148226395
					40:leaf=-0
				20:[match1_dX<-19.6797447] yes=41,no=42,missing=42
					41:leaf=0.000845751551
					42:leaf=-0.0960730761
			10:[match1_dX<-28.979187] yes=21,no=22,missing=22
				21:[pt<3.56727695] yes=43,no=44,missing=44
					43:leaf=0.0835443214
					44:leaf=0.0182324052
				22:[match1_pullDxDz<2.38752651] yes=45,no=46,missing=46
					45:leaf=-0.00795852765
					46:leaf=-0.0829926804
	2:[match1_pullX<0.664406896] yes=5,no=6,missing=6
		5:[match2_pullDxDz<-1.28104091] yes=11,no=12,missing=12
			11:[match1_dX<-1.27901649] yes=23,no=24,missing=24
				23:[match2_pullY<1.02520442] yes=47,no=48,missing=48
					47:leaf=-0.0657708049
					48:leaf=-0.141287908
				24:[match2_pullX<1.30415726] yes=49,no=50,missing=50
					49:leaf=-0.00891740341
					50:leaf=-0.0970523506
			12:[pt<2.61995459] yes=25,no=26,missing=26
				25:[nLostHitsInner<1] yes=51,no=52,missing=52
					51:leaf=0.00139792182
					52:leaf=-0.0756349117
				26:[match2_pullX<-1.30249262] yes=53,no=54,missing=54
					53:leaf=-0.0999778733
					54:leaf=0.0237597711
		6:[chi2LocalPosition<9.66284847] yes=13,no=14,missing=14
			13:[match1_pullDyDz<0.976101875] yes=27,no=28,missing=28
				27:[match1_pullX<2.15823269] yes=55,no=56,missing=56
					55:leaf=-0.013675563
					56:leaf=-0.121804647
				28:[match2_pullX<-2.25518322] yes=57,no=58,missing=58
					57:leaf=-0.12005794
					58:leaf=0.0121420501
			14:[nLostHitsInner<1] yes=29,no=30,missing=30
				29:[pt<2.5261333] yes=59,no=60,missing=60
					59:leaf=0.0680410713
					60:leaf=-0.0709765702
				30:[chi2LocalPosition<87.6676636] yes=61,no=62,missing=62
					61:leaf=0.0484495759
					62:leaf=0.267613709
booster[20]:
0:[pt<2.08688402] yes=1,no=2,missing=2
	1:[nLostHitsInner<1] yes=3,no=4,missing=4
		3:[trkKink<16.6627598] yes=7,no=8,missing=8
			7:[match2_pullY<-2.97021151] yes=15,no=16,missing=16
				15:[trkValidFrac<0.920000017] yes=31,no=32,missing=32
					31:leaf=-0
					32:leaf=-0.311533213
				16:[nPixels<2] yes=33,no=34,missing=34
					33:leaf=-0.308526784
					34:leaf=0.0433576405
			8:[trkKink<62.2827377] yes=17,no=18,missing=18
				17:[nPixels<3] yes=35,no=36,missing=36
					35:leaf=-0.0529250689
					36:leaf=0.112537064
				18:[match1_dY<72.8831482] yes=37,no=38,missing=38
					37:leaf=-0.0223402139
					38:leaf=0.148713097
		4:[trkValidFrac<0.869565189] yes=9,no=10,missing=10
			9:[chi2LocalPosition<4.01806498] yes=19,no=20,missing=20
				19:[glbTrackProbability<0.864007831] yes=39,no=40,missing=40
					39:leaf=0.012878581
					40:leaf=-0.0730420947
				20:[match1_pullDxDz<-0.0917118639] yes=41,no=42,missing=42
					41:leaf=-0
					42:leaf=0.290854633
			10:[match1_dY<-5.58756638] yes=21,no=22,missing=22
				21:[glbTrackProbability<0.00700274017] yes=43,no=44,missing=44
					43:leaf=0.0256975461
					44:leaf=-0.0574188158
				22:[match1_dX<12.5446758] yes=45,no=46,missing=46
					45:leaf=-0.12676388
					46:leaf=-0.0432050414
	2:[match1_dY<-14.9321938] yes=5,no=6,missing=6
		5:[pt<3.56727695] yes=11,no=12,missing=12
			11:[match1_pullDyDz<-0.0330976807] yes=23,no=24,missing=24
				23:[nValidHits<22] yes=47,no=48,missing=48
					47:leaf=-0
					48:leaf=-0.140572563
				24:[eta<-1.48193359] yes=49,no=50,missing=50
					49:leaf=-0.0301238541
					50:leaf=0.0777174532
			12:[chi2LocalPosition<0.0191996563] yes=25,no=26,missing=26
				25:[match1_pullY<-1.60356057] yes=51,no=52,missing=52
					51:leaf=-0.105352238
					52:leaf=-0.00286606955
				26:[match1_pullY<-1.60356057] yes=53,no=54,missing=54
					53:leaf=0.0514912456
					54:leaf=0.00535127381
		6:[match1_pullY<-1.88315976] yes=13,no=14,missing=14
			13:[chi2LocalPosition<2.07449865] yes=27,no=28,missing=28
				27:[nValidHits<16] yes=55,no=56,missing=56
					55:leaf=-0.0612760521
					56:leaf=-0.276700139
				28:[pt<5.38548183] yes=57,no=58,missing=58
					57:leaf=-0.115057394
					58:leaf=0.023819305
			14:[match2_dY<8.96737766] yes=29,no=30,missing=30
				29:[nLostHitsOuter<2] yes=59,no=60,missing=60
					59:leaf=0.00652705133
					60:leaf=-0.0846348479
				30:[eta<1.01977539] yes=61,no=62,missing=62
					61:leaf=-0.00273895077
					62:leaf=-0.0286084767
booster[21]:
0:[pt<11.3202848] yes=1,no=2,missing=2
	1:[match2_pullDyDz<-1.02902424] yes=3,no=4,missing=4
		3:[match2_pullY<2.39615083] yes=7,no=8,missing=8
			7:[match2_pullX<1.45840418] yes=15,no=16,missing=16
				15:[match2_pullX<-0.935894191] yes=31,no=32,missing=32
					31:leaf=-0.0460055619
					32:leaf=-0.00298744603
				16:[match2_pullDxDz<-0.502289176] yes=33,no=34,missing=34
					33:leaf=-0.0323981978
					34:leaf=-0.200946495
			8:[trkValidFrac<0.913043499] yes=17,no=18,missing=18
				17:[match1_dY<43.8884926] yes=35,no=36,missing=36
					35:leaf=-0.097525999
					36:leaf=0.134651199
				18:[chi2LocalPosition<4.01806498] yes=37,no=38,missing=38
					37:leaf=-0.231040716
					38:leaf=-0.111691371
		4:[trkKink<23.1035652] yes=9,no=10,missing=10
			9:[glbTrackProbability<122.147446] yes=19,no=20,missing=20
				19:[chi2LocalPosition<13.7145319] yes=39,no=40,missing=40
					39:leaf=0.00457512354
					40:leaf=-0.0389267877
				20:[chi2LocalPosition<5.43476391] yes=41,no=42,missing=42
					41:leaf=0.0835225135
					42:leaf=0.206606746
			10:[glbTrackProbability<17.7972355] yes=21,no=22,missing=22
				21:[trkKink<35.5576553] yes=43,no=44,missing=44
					43:leaf=-0.0221922044
					44:leaf=0.011634388
				22:[nValidHits<7] yes=45,no=46,missing=46
					45:leaf=0.239684448
					46:leaf=-0.0685006827
	2:[pt<18.6034393] yes=5,no=6,missing=6
		5:[nPixels<1] yes=11,no=12,missing=12
			11:[trkValidFrac<0.920000017] yes=23,no=24,missing=24
				23:[glbTrackProbability<2.33269095] yes=47,no=48,missing=48
					47:leaf=0.0610782206
					48:leaf=-0.031125512
				24:[chi2LocalPosition<5.87262106] yes=49,no=50,missing=50
					49:leaf=-0.464354724
					50:leaf=-0
			12:[nLostHitsInner<1] yes=25,no=26,missing=26
				25:[match2_pullX<1.42344081] yes=51,no=52,missing=52
					51:leaf=0.0741996616
					52:leaf=0.0315928273
				26:[trkKink<16.0632477] yes=53,no=54,missing=54
					53:leaf=0.165275931
					54:leaf=-0
		6:[match1_pullDxDz<-9.5459528] yes=13,no=14,missing=14
			13:leaf=-0
			14:[match2_dX<-8.45645523] yes=29,no=30,missing=30
				29:leaf=-0
				30:[nLostHitsInner<1] yes=57,no=58,missing=58
					57:leaf=0.127348214
					58:leaf=0.222787797
booster[22]:
0:[eta<-1.47021484] yes=1,no=2,missing=2
	1:[eta<-2.05664062] yes=3,no=4,missing=4
		3:[match1_pullY<-1.08967197] yes=7,no=8,missing=8
			7:[match1_pullY<-2.30341506] yes=15,no=16,missing=16
				15:[nValidHits<15] yes=31,no=32,missing=32
					31:leaf=-0
					32:leaf=-0.18969284
				16:[nLostHitsOuter<1] yes=33,no=34,missing=34
					33:leaf=-0.0363061763
					34:leaf=-0.135889709
			8:[match2_pullY<-1.84690619] yes=17,no=18,missing=18
				17:[trkKink<13.0267496] yes=35,no=36,missing=36
					35:leaf=-0.204831958
					36:leaf=-0.00261495751
				18:[glbTrackProbability<0.0671326518] yes=37,no=38,missing=38
					37:leaf=0.0500614122
					38:leaf=0.0163000207
		4:[match1_pullY<1.2850889] yes=9,no=10,missing=10
			9:[nPixels<3] yes=19,no=20,missing=20
				19:[match1_pullY<-2.6048367] yes=39,no=40,missing=40
					39:leaf=0.304015487
					40:leaf=-0.0952065811
				20:[match2_pullDyDz<-0.846250594] yes=41,no=42,missing=42
					41:leaf=-0.0476191379
					42:leaf=-0.00865566265
			10:[trkValidFrac<0.869565189] yes=21,no=22,missing=22
				21:[match1_dY<15.6540823] yes=43,no=44,missing=44
					43:leaf=-0.086541675
					44:leaf=0.0777620524
				22:[pt<2.97432661] yes=45,no=46,missing=46
					45:leaf=-0.0355537757
					46:leaf=-0.105026878
	2:[eta<0.821777344] yes=5,no=6,missing=6
		5:[nValidHits<17] yes=11,no=12,missing=12
			11:[nLostHitsInner<4] yes=23,no=24,missing=24
				23:[chi2LocalPosition<28.801672] yes=47,no=48,missing=48
					47:leaf=0.00696100667
					48:leaf=-0.0779470354
				24:[eta<-1.14599609] yes=49,no=50,missing=50
					49:leaf=0.0837427378
					50:leaf=-0.136463702
			12:[chi2LocalPosition<0] yes=25,no=26,missing=26
				25:[glbTrackProbability<13.2635584] yes=51,no=52,missing=52
					51:leaf=-0.432294399
					52:leaf=-0
				26:[trkKink<143.361435] yes=53,no=54,missing=54
					53:leaf=0.033311002
					54:leaf=-0.190271184
		6:[eta<2.15332031] yes=13,no=14,missing=14
			13:[pt<3.31864572] yes=27,no=28,missing=28
				27:[chi2LocalPosition<56.6024895] yes=55,no=56,missing=56
					55:leaf=-0.00261772331
					56:leaf=0.51610148
				28:[glbTrackProbability<0.00347998762] yes=57,no=58,missing=58
					57:leaf=-0.0776380152
					58:leaf=-0.0156944748
			14:[match1_pullY<-1.02829134] yes=29,no=30,missing=30
				29:[nLostHitsInner<3] yes=59,no=60,missing=60
					59:leaf=-0.0405650884
					60:leaf=0.287496299
				30:[nValidHits<21] yes=61,no=62,missing=62
					61:leaf=0.010215248
					62:leaf=0.0426179245
booster[23]:
0:[match1_pullX<-0.778792202] yes=1,no=2,missing=2
	1:[match1_pullDxDz<0.348027825] yes=3,no=4,missing=4
		3:[match2_pullDxDz<-0.557893395] yes=7,no=8,missing=8
			7:[match2_pullY<-0.214533955] yes=15,no=16,missing=16
				15:[pt<3.30510616] yes=31,no=32,missing=32
					31:leaf=-0.0237826947
					32:leaf=-0.104244567
				16:[match1_dY<37.7441978] yes=33,no=34,missing=34
					33:leaf=-0.145757571
					34:leaf=-0
			8:[match2_dY<5.41379166] yes=17,no=18,missing=18
				17:[nLostHitsOuter<1] yes=35,no=36,missing=36
					35:leaf=-0.0176061746
					36:leaf=-0.129105642
				18:[trkValidFrac<0.869565189] yes=37,no=38,missing=38
					37:leaf=0.050184302
					38:leaf=-0.0737197772
		4:[match2_pullDxDz<0.269326687] yes=9,no=10,missing=10
			9:[pt<2.3237226] yes=19,no=20,missing=20
				19:[match1_dY<5.63246155] yes=39,no=40,missing=40
					39:leaf=0.000275188679
					40:leaf=0.0704000592
				20:[match1_pullX<-1.79495811] yes=41,no=42,missing=42
					41:leaf=-0.103584789
					42:leaf=-0.0371890776
			10:[chi2LocalPosition<0.52358377] yes=21,no=22,missing=22
				21:[match1_pullDxDz<2.2521987] yes=43,no=44,missing=44
					43:leaf=-0.00980104785
					44:leaf=-0.0878752768
				22:[nLostHitsOuter<3] yes=45,no=46,missing=46
					45:leaf=0.00975571759
					46:leaf=-0.140840426
	2:[match2_pullX<-1.05716801] yes=5,no=6,missing=6
		5:[match2_pullDxDz<0.0704304352] yes=11,no=12,missing=12
			11:[trkValidFrac<0.90625] yes=23,no=24,missing=24
				23:[match2_pullDxDz<-1.57712591] yes=47,no=48,missing=48
					47:leaf=0.0934816226
					48:leaf=-0.02451667
				24:[match2_dX<-60.0377083] yes=49,no=50,missing=50
					49:leaf=-0
					50:leaf=-0.157949984
			12:[match2_pullDxDz<2.73758888] yes=25,no=26,missing=26
				25:[eta<-1.75317383] yes=51,no=52,missing=52
					51:leaf=-0.0553881936
					52:leaf=0.00159238058
				26:[match1_pullDyDz<1.65210521] yes=53,no=54,missing=54
					53:leaf=-0.186994672
					54:leaf=-0.020288201
		6:[match2_pullDxDz<0.923346281] yes=13,no=14,missing=14
			13:[glbTrackProbability<0.252489954] yes=27,no=28,missing=28
				27:[match2_pullX<2.01537228] yes=55,no=56,missing=56
					55:leaf=0.0283519514
					56:leaf=-0.0963893905
				28:[nLostHitsOuter<2] yes=57,no=58,missing=58
					57:leaf=0.00343520218
					58:leaf=-0.107879624
			14:[match2_pullDyDz<6.67707682] yes=29,no=30,missing=30
				29:[match2_dX<4.86538887] yes=59,no=60,missing=60
					59:leaf=-0.021336576
					60:leaf=-0.146501541
				30:[match1_pullY<0.461341202] yes=61,no=62,missing=62
					61:leaf=0.0221209545
					62:leaf=-0.0101207895
booster[24]:
0:[pt<2.09541726] yes=1,no=2,missing=2
	1:[nLostHitsInner<1] yes=3,no=4,missing=4
		3:[chi2LocalPosition<2.80490088] yes=7,no=8,missing=8
			7:[nPixels<2] yes=15,no=16,missing=16
				15:[match2_pullDyDz<-1.31886661] yes=31,no=32,missing=32
					31:leaf=-0
					32:leaf=-0.278330833
				16:[match2_pullY<-2.0512867] yes=33,no=34,missing=34
					33:leaf=-0.116879687
					34:leaf=0.031358175
			8:[glbTrackProbability<2.99922585] yes=17,no=18,missing=18
				17:[match1_dY<15.6540823] yes=35,no=36,missing=36
					35:leaf=0.0841293633
					36:leaf=-0.0114616938
				18:[chi2LocalPosition<15.1968603] yes=37,no=38,missing=38
					37:leaf=0.132992402
					38:leaf=0.270294905
		4:[nValidHits<12] yes=9,no=10,missing=10
			9:[eta<2.16845703] yes=19,no=20,missing=20
				19:leaf=-0
				20:[chi2LocalPosition<0.512232184] yes=41,no=42,missing=42
					41:leaf=-0
					42:leaf=0.483662456
			10:[trkValidFrac<0.923076928] yes=21,no=22,missing=22
				21:[chi2LocalPosition<0.0348489843] yes=43,no=44,missing=44
					43:leaf=-0
					44:leaf=-0.0827864707
				22:[match1_pullY<-1.50618613] yes=45,no=46,missing=46
					45:leaf=0.0733642876
					46:leaf=-0.095659703
	2:[eta<1.45458984] yes=5,no=6,missing=6
		5:[eta<-1.06005859] yes=11,no=12,missing=12
			11:[match1_dY<5.1096344] yes=23,no=24,missing=24
				23:[eta<-1.45800781] yes=47,no=48,missing=48
					47:leaf=-0.00462649204
					48:leaf=0.0241820514
				24:[glbTrackProbability<0.00347998762] yes=49,no=50,missing=50
					49:leaf=-0.0523828156
					50:leaf=-0.0134053109
			12:[pt<4.04853535] yes=25,no=26,missing=26
				25:[eta<1.21020508] yes=51,no=52,missing=52
					51:leaf=0.0404902622
					52:leaf=0.00626397831
				26:[trkKink<8.22536564] yes=53,no=54,missing=54
					53:leaf=0.0185591038
					54:leaf=-0.0169015434
		6:[match1_pullY<-1.15771317] yes=13,no=14,missing=14
			13:[match2_pullDyDz<0.327197343] yes=27,no=28,missing=28
				27:[match2_pullY<-0.969912827] yes=55,no=56,missing=56
					55:leaf=-0.0545561872
					56:leaf=-0.148037508
				28:[match1_pullDxDz<1.96528637] yes=57,no=58,missing=58
					57:leaf=-0.0252869073
					58:leaf=-0.127741024
			14:[eta<1.98413086] yes=29,no=30,missing=30
				29:[nValidHits<21] yes=59,no=60,missing=60
					59:leaf=-0.0400405303
					60:leaf=-0.0108540691
				30:[eta<2.39111328] yes=61,no=62,missing=62
					61:leaf=0.00214555976
					62:leaf=0.0565335266
booster[25]:
0:[pt<10.1344137] yes=1,no=2,missing=2
	1:[match2_dY<-17.098856] yes=3,no=4,missing=4
		3:[match2_pullY<-2.97021151] yes=7,no=8,missing=8
			7:[trkValidFrac<0.870967746] yes=15,no=16,missing=16
				15:[match2_pullDyDz<1.63541687] yes=31,no=32,missing=32
					31:leaf=0.274289548
					32:leaf=0.0683000088
				16:[chi2LocalPosition<0.569548488] yes=33,no=34,missing=34
					33:leaf=-0.157161176
					34:leaf=0.0143997055
			8:[match2_dY<-71.0664749] yes=17,no=18,missing=18
				17:[chi2LocalPosition<5.06843424] yes=35,no=36,missing=36
					35:leaf=0.0628329366
					36:leaf=0.171505973
				18:[match1_pullY<-2.6048367] yes=37,no=38,missing=38
					37:leaf=-0.0983974487
					38:leaf=0.0251584072
		4:[nLostHitsOuter<1] yes=9,no=10,missing=10
			9:[trkKink<143.361435] yes=19,no=20,missing=20
				19:[glbTrackProbability<88.1629486] yes=39,no=40,missing=40
					39:leaf=0.000109179564
					40:leaf=0.0968996361
				20:[nValidHits<8] yes=41,no=42,missing=42
					41:leaf=0.245910302
					42:leaf=-0.124275006
			10:[nValidHits<14] yes=21,no=22,missing=22
				21:[match1_pullDxDz<2.80587554] yes=43,no=44,missing=44
					43:leaf=-0.0204984806
					44:leaf=0.0558286943
				22:[nLostHitsOn<1] yes=45,no=46,missing=46
					45:leaf=-0.0516978465
					46:leaf=0.0142858373
	2:[pt<18.6034393] yes=5,no=6,missing=6
		5:[trkKink<7.45397615] yes=11,no=12,missing=12
			11:[chi2LocalPosition<21.6096992] yes=23,no=24,missing=24
				23:[nPixels<1] yes=47,no=48,missing=48
					47:leaf=-0.0713468343
					48:leaf=0.0760444701
				24:[glbTrackProbability<2.03290629] yes=49,no=50,missing=50
					49:leaf=0.207676351
					50:leaf=-0.0363368466
			12:[nValidHits<9] yes=25,no=26,missing=26
				25:[glbTrackProbability<10.3694715] yes=51,no=52,missing=52
					51:leaf=-0
					52:leaf=0.293538809
				26:[trkValidFrac<0.818181813] yes=53,no=54,missing=54
					53:leaf=-0.165840179
					54:leaf=0.0212214328
		6:[trkValidFrac<0.947368443] yes=13,no=14,missing=14
			13:[match2_dY<-11.0251808] yes=27,no=28,missing=28
				27:leaf=-0
				28:[match1_dY<-14.9321938] yes=55,no=56,missing=56
					55:leaf=-0
					56:leaf=0.196948841
			14:[match1_pullX<2.46947336] yes=29,no=30,missing=30
				29:[chi2LocalPosition<7.45549965] yes=57,no=58,missing=58
					57:leaf=0.0881097168
					58:leaf=0.252921581
				30:[match2_dX<6.05882978] yes=59,no=60,missing=60
					59:leaf=0.0701330155
					60:leaf=-0.0375671051
booster[26]:
0:[match1_pullDyDz<0.945286214] yes=1,no=2,missing=2
	1:[match1_pullY<2.50658941] yes=3,no=4,missing=4
		3:[match1_pullX<1.49461985] yes=7,no=8,missing=8
			7:[chi2LocalPosition<13.7145319] yes=15,no=16,missing=16
				15:[nLostHitsOuter<2] yes=31,no=32,missing=32
					31:leaf=0.000624264067
					32:leaf=-0.0705750808
				16:[match1_pullX<-1.57554054] yes=33,no=34,missing=34
					33:leaf=-0.0793038383
					34:leaf=0.169100314
			8:[match2_pullDxDz<-0.807199717] yes=17,no=18,missing=18
				17:[match1_pullDxDz<-1.08513916] yes=35,no=36,missing=36
					35:leaf=0.0321337767
					36:leaf=-0.064427726
				18:[pt<2.4028933] yes=37,no=38,missing=38
					37:leaf=0.0194917079
					38:leaf=-0.0816195682
		4:[trkValidFrac<0.882352948] yes=9,no=10,missing=10
			9:[nLostHitsInner<2] yes=19,no=20,missing=20
				19:[match1_pullDxDz<-2.96137285] yes=39,no=40,missing=40
					39:leaf=0.204467803
					40:leaf=-0.0160769224
				20:[match1_pullY<2.87474489] yes=41,no=42,missing=42
					41:leaf=-0
					42:leaf=0.286082596
			10:[match1_pullY<2.87474489] yes=21,no=22,missing=22
				21:[pt<4.12779522] yes=43,no=44,missing=44
					43:leaf=-0.150689691
					44:leaf=-0.0104085216
				22:[match2_pullY<1.41153622] yes=45,no=46,missing=46
					45:leaf=-0
					46:leaf=-0.23476328
	2:[chi2LocalPosition<12.4358149] yes=5,no=6,missing=6
		5:[chi2LocalPosition<0] yes=11,no=12,missing=12
			11:[trkValidFrac<0.869565189] yes=23,no=24,missing=24
				23:[eta<-0.764160156] yes=47,no=48,missing=48
					47:leaf=0.612369418
					48:leaf=0.0454408675
				24:[pt<4.19000244] yes=49,no=50,missing=50
					49:leaf=0.00660070637
					50:leaf=-0.352239758
			12:[match2_pullDyDz<-0.241524726] yes=25,no=26,missing=26
				25:[match2_pullX<1.85044181] yes=51,no=52,missing=52
					51:leaf=0.000782044954
					52:leaf=-0.0927212313
				26:[trkValidFrac<0.92592591] yes=53,no=54,missing=54
					53:leaf=0.0400285572
					54:leaf=0.0128207291
		6:[match1_pullX<2.69814181] yes=13,no=14,missing=14
			13:[match1_pullY<-1.88315976] yes=27,no=28,missing=28
				27:[match2_dX<39.8122559] yes=55,no=56,missing=56
					55:leaf=-0.0683547109
					56:leaf=0.0612686388
				28:[pt<3.51303244] yes=57,no=58,missing=58
					57:leaf=0.0794064328
					58:leaf=0.199728712
			14:[pt<2.80902386] yes=29,no=30,missing=30
				29:[glbTrackProbability<4.73485661] yes=59,no=60,missing=60
					59:leaf=-0.0760399923
					60:leaf=0.238460302
				30:[match2_pullX<2.01537228] yes=61,no=62,missing=62
					61:leaf=0.057020817
					62:leaf=-0.0630031675
booster[27]:
0:[nPixels<3] yes=1,no=2,missing=2
	1:[chi2LocalPosition<5.24369478] yes=3,no=4,missing=4
		3:[nValidHits<17] yes=7,no=8,missing=8
			7:[trkValidFrac<0.92592591] yes=15,no=16,missing=16
				15:[nLostHitsInner<4] yes=31,no=32,missing=32
					31:leaf=0.0173243992
					32:leaf=-0.0909249559
				16:[nValidHits<11] yes=33,no=34,missing=34
					33:leaf=-0.385635257
					34:leaf=-0.0429976359
			8:[glbTrackProbability<0.0217960309] yes=17,no=18,missing=18
				17:[match1_pullDxDz<3.83723068] yes=35,no=36,missing=36
					35:leaf=-0.0259460341
					36:leaf=0.0920240283
				18:[trkValidFrac<0.962962985] yes=37,no=38,missing=38
					37:leaf=-0.117516749
					38:leaf=0.0413376018
		4:[chi2LocalPosition<34.227108] yes=9,no=10,missing=10
			9:[nPixels<1] yes=19,no=20,missing=20
				19:[match2_pullY<2.08034587] yes=39,no=40,missing=40
					39:leaf=-0.0177416001
					40:leaf=0.126522526
				20:[pt<6.8298254] yes=41,no=42,missing=42
					41:leaf=-5.19635541e-05
					42:leaf=0.0908542722
			10:[nPixels<2] yes=21,no=22,missing=22
				21:[pt<5.08009338] yes=43,no=44,missing=44
					43:leaf=0.310007036
					44:leaf=0.135179743
				22:[pt<4.32431412] yes=45,no=46,missing=46
					45:leaf=0.137647107
					46:leaf=-0.0365479887
	2:[nLostHitsInner<2] yes=5,no=6,missing=6
		5:[trkValidFrac<0.92592591] yes=11,no=12,missing=12
			11:[nLostHitsOuter<2] yes=23,no=24,missing=24
				23:[trkKink<30.7073059] yes=47,no=48,missing=48
					47:leaf=0.0814525411
					48:leaf=-0.0294673759
				24:[match1_pullDxDz<3.18387866] yes=49,no=50,missing=50
					49:leaf=-0.0573985316
					50:leaf=0.0302422326
			12:[trkKink<117.558235] yes=25,no=26,missing=26
				25:[glbTrackProbability<88.1629486] yes=51,no=52,missing=52
					51:leaf=-9.20355305e-05
					52:leaf=0.0851923674
				26:[glbTrackProbability<70.4468994] yes=53,no=54,missing=54
					53:leaf=-0.0565096661
					54:leaf=-0.139811471
		6:[nValidHits<24] yes=13,no=14,missing=14
			13:[pt<4.69924116] yes=27,no=28,missing=28
				27:[glbTrackProbability<0.00347998762] yes=55,no=56,missing=56
					55:leaf=-0
					56:leaf=-0.11722739
				28:[match1_pullDyDz<-1.51157796] yes=57,no=58,missing=58
					57:leaf=-0.0355488062
					58:leaf=0.0721323043
			14:[chi2LocalPosition<13.7145319] yes=29,no=30,missing=30
				29:[eta<2.08007812] yes=59,no=60,missing=60
					59:leaf=-0.243893027
					60:leaf=-0
				30:leaf=-0
booster[28]:
0:[match2_pullX<-1.78209555] yes=1,no=2,missing=2
	1:[match2_pullDxDz<0.847881913] yes=3,no=4,missing=4
		3:[match2_dX<-60.0377083] yes=7,no=8,missing=8
			7:[pt<3.74078178] yes=15,no=16,missing=16
				15:[glbTrackProbability<0.265647709] yes=31,no=32,missing=32
					31:leaf=-0
					32:leaf=0.102996841
				16:[glbTrackProbability<0.910469592] yes=33,no=34,missing=34
					33:leaf=-0.13855812
					34:leaf=0.00641863979
			8:[match2_dY<-34.4557266] yes=17,no=18,missing=18
				17:[trkKink<8.16967392] yes=35,no=36,missing=36
					35:leaf=-0.0357801802
					36:leaf=0.0996955931
				18:[trkValidFrac<0.894736826] yes=37,no=38,missing=38
					37:leaf=-0.000416387309
					38:leaf=-0.142667383
		4:[match1_dX<-9.26077461] yes=9,no=10,missing=10
			9:[match2_pullDxDz<1.51859009] yes=19,no=20,missing=20
				19:[pt<3.97394967] yes=39,no=40,missing=40
					39:leaf=0.0419102386
					40:leaf=-0.0471384488
				20:[eta<-0.469909668] yes=41,no=42,missing=42
					41:leaf=0.0769805983
					42:leaf=0.0313997716
			10:[match2_pullX<-2.42402792] yes=21,no=22,missing=22
				21:[match2_dX<-30.1418114] yes=43,no=44,missing=44
					43:leaf=-0.0115167387
					44:leaf=-0.132917181
				22:[chi2LocalPosition<1.89016676] yes=45,no=46,missing=46
					45:leaf=-0.0587957278
					46:leaf=0.0074971756
	2:[eta<-2.17333984] yes=5,no=6,missing=6
		5:[match1_dY<-2.07155228] yes=11,no=12,missing=12
			11:[trkKink<11.8635216] yes=23,no=24,missing=24
				23:[trkValidFrac<0.939393938] yes=47,no=48,missing=48
					47:leaf=0.0593241788
					48:leaf=-0.0352881402
				24:[nValidHits<22] yes=49,no=50,missing=50
					49:leaf=-0.00670783548
					50:leaf=0.0706498772
			12:[chi2LocalPosition<0.0113870772] yes=25,no=26,missing=26
				25:[match2_pullY<-1.29820168] yes=51,no=52,missing=52
					51:leaf=-0.0787671134
					52:leaf=0.0624790974
				26:[nValidHits<21] yes=53,no=54,missing=54
					53:leaf=0.00822073314
					54:leaf=0.037642695
		6:[eta<-1.47021484] yes=13,no=14,missing=14
			13:[nValidHits<21] yes=27,no=28,missing=28
				27:[trkValidFrac<0.527777791] yes=55,no=56,missing=56
					55:leaf=0.0464073308
					56:leaf=-0.035841275
				28:[match1_pullY<-1.29042506] yes=57,no=58,missing=58
					57:leaf=-0.0498413928
					58:leaf=-0.00259010773
			14:[trkKink<6.9951396] yes=29,no=30,missing=30
				29:[eta<0.885864258] yes=59,no=60,missing=60
					59:leaf=0.0234039836
					60:leaf=0.00178546365
				30:[nLostHitsInner<2] yes=61,no=62,missing=62
					61:leaf=-0.00232447707
					62:leaf=-0.0502343923
booster[29]:
0:[pt<9.69375324] yes=1,no=2,missing=2
	1:[pt<2.14455628] yes=3,no=4,missing=4
		3:[nLostHitsInner<1] yes=7,no=8,missing=8
			7:[trkKink<16.6627598] yes=15,no=16,missing=16
				15:[trkKink<6.95075607] yes=31,no=32,missing=32
					31:leaf=0.0289182849
					32:leaf=-0.00209930469
				16:[nPixels<3] yes=33,no=34,missing=34
					33:leaf=-0.0726680756
					34:leaf=0.0525953732
			8:[trkValidFrac<0.870967746] yes=17,no=18,missing=18
				17:[glbTrackProbability<2.42792177] yes=35,no=36,missing=36
					35:leaf=0.0288019385
					36:leaf=-0.0581400022
				18:[trkKink<38.4330025] yes=37,no=38,missing=38
					37:leaf=-0.0685766935
					38:leaf=0.0474548005
		4:[match1_pullX<-1.79495811] yes=9,no=10,missing=10
			9:[match1_pullDxDz<1.35484004] yes=19,no=20,missing=20
				19:[trkValidFrac<0.761904776] yes=39,no=40,missing=40
					39:leaf=0.16510801
					40:leaf=-0.0772902071
				20:[match1_dX<-10.2856588] yes=41,no=42,missing=42
					41:leaf=-0.00401648693
					42:leaf=-0.0598340146
			10:[match2_pullX<-1.92563224] yes=21,no=22,missing=22
				21:[match2_dX<-39.7802048] yes=43,no=44,missing=44
					43:leaf=-0
					44:leaf=-0.0771206319
				22:[match1_pullDxDz<-1.49181807] yes=45,no=46,missing=46
					45:leaf=-0.0162643921
					46:leaf=0.000556754938
	2:[nLostHitsInner<1] yes=5,no=6,missing=6
		5:[trkKink<9.22489357] yes=11,no=12,missing=12
			11:[chi2LocalPosition<56.6024895] yes=23,no=24,missing=24
				23:[nPixels<2] yes=47,no=48,missing=48
					47:leaf=-0.0449585803
					48:leaf=0.0534048676
				24:[glbTrackProbability<7.09029388] yes=49,no=50,missing=50
					49:leaf=0.154928133
					50:leaf=-0.0997640267
			12:[glbTrackProbability<9.61568546] yes=25,no=26,missing=26
				25:[nValidHits<21] yes=51,no=52,missing=52
					51:leaf=-0.0258706678
					52:leaf=0.0296437871
				26:[trkValidFrac<0.428571433] yes=53,no=54,missing=54
					53:leaf=0.333372116
					54:leaf=0.0433970764
		6:[nValidHits<11] yes=13,no=14,missing=14
			13:[match1_pullX<-0.0895258188] yes=27,no=28,missing=28
				27:leaf=-0
				28:[nPixels<4] yes=55,no=56,missing=56
					55:leaf=-0.146509975
					56:leaf=-0
			14:[pt<15.0799208] yes=29,no=30,missing=30
				29:[trkValidFrac<0.782608688] yes=57,no=58,missing=58
					57:leaf=-0.0148018254
					58:leaf=0.0932204351
				30:[trkKink<36.9566574] yes=59,no=60,missing=60
					59:leaf=0.195069984
					60:leaf=-0
booster[30]:
0:[glbTrackProbability<8.35682678] yes=1,no=2,missing=2
	1:[trkValidFrac<0.923076928] yes=3,no=4,missing=4
		3:[nLostHitsInner<2] yes=7,no=8,missing=8
			7:[chi2LocalPosition<5.64336681] yes=15,no=16,missing=16
				15:[pt<3.05825329] yes=31,no=32,missing=32
					31:leaf=0.0107153663
					32:leaf=0.0735682473
				16:[pt<4.04853535] yes=33,no=34,missing=34
					33:leaf=-0.00199293415
					34:leaf=-0.0946564451
			8:[eta<2.29833984] yes=17,no=18,missing=18
				17:[match2_pullDxDz<1.69536364] yes=35,no=36,missing=36
					35:leaf=-0.0378013626
					36:leaf=0.0188287459
				18:[nPixels<2] yes=37,no=38,missing=38
					37:leaf=0.298410863
					38:leaf=-0
		4:[nPixels<2] yes=9,no=10,missing=10
			9:[nValidHits<12] yes=19,no=20,missing=20
				19:[nPixels<1] yes=39,no=40,missing=40
					39:leaf=-0.294338077
					40:leaf=-0
				20:[pt<2.43935394] yes=41,no=42,missing=42
					41:leaf=-0.189995915
					42:leaf=-0.0716654956
			10:[nLostHitsOuter<1] yes=21,no=22,missing=22
				21:[nLostHitsInner<1] yes=43,no=44,missing=44
					43:leaf=0.00199057837
					44:leaf=-0.0276548807
				22:[glbTrackProbability<4.61187935] yes=45,no=46,missing=46
					45:leaf=-0.0440714099
					46:leaf=0.0758802071
	2:[glbTrackProbability<538.394531] yes=5,no=6,missing=6
		5:[eta<-2.20410156] yes=11,no=12,missing=12
			11:[chi2LocalPosition<16.9897709] yes=23,no=24,missing=24
				23:[pt<4.08755112] yes=47,no=48,missing=48
					47:leaf=0.00714752078
					48:leaf=0.112794504
				24:[match1_pullDxDz<4.89595652] yes=49,no=50,missing=50
					49:leaf=0.434871286
					50:leaf=0.0798029006
			12:[eta<-1.74169922] yes=25,no=26,missing=26
				25:[match1_pullY<-0.990228057] yes=51,no=52,missing=52
					51:leaf=-0.120452568
					52:leaf=-0.0422116071
				26:[eta<1.4152832] yes=53,no=54,missing=54
					53:leaf=-0.00283286208
					54:leaf=-0.0291917119
		6:[chi2LocalPosition<5.87262106] yes=13,no=14,missing=14
			13:[trkKink<670.389465] yes=27,no=28,missing=28
				27:[trkKink<24.4740314] yes=55,no=56,missing=56
					55:leaf=0.0351094007
					56:leaf=0.170945719
				28:[eta<-1.19458008] yes=57,no=58,missing=58
					57:leaf=-0
					58:leaf=-0.132935107
			14:[trkKink<670.389465] yes=29,no=30,missing=30
				29:[pt<13.3205967] yes=59,no=60,missing=60
					59:leaf=0.243965372
					60:leaf=-0
				30:[nLostHitsOuter<5] yes=61,no=62,missing=62
					61:leaf=-0.0393646993
					62:leaf=0.300878704
booster[31]:
0:[match2_dY<-13.0457783] yes=1,no=2,missing=2
	1:[eta<1.84399414] yes=3,no=4,missing=4
		3:[eta<-1.83569336] yes=7,no=8,missing=8
			7:[match1_pullY<-2.6048367] yes=15,no=16,missing=16
				15:[match1_dX<-6.45778465] yes=31,no=32,missing=32
					31:leaf=-0
					32:leaf=-0.225883141
				16:[match1_pullX<2.29663372] yes=33,no=34,missing=34
					33:leaf=-0.000510934682
					34:leaf=-0.0806190073
			8:[chi2LocalPosition<3.91891074] yes=17,no=18,missing=18
				17:[match2_pullDxDz<1.95860064] yes=35,no=36,missing=36
					35:leaf=0.0160704497
					36:leaf=-0.0596434847
				18:[match1_pullY<3.71179509] yes=37,no=38,missing=38
					37:leaf=0.0321164094
					38:leaf=0.0709693506
		4:[chi2LocalPosition<7.06303024] yes=9,no=10,missing=10
			9:[glbTrackProbability<0.00347998762] yes=19,no=20,missing=20
				19:[trkValidFrac<0.899999976] yes=39,no=40,missing=40
					39:leaf=0.0722714216
					40:leaf=-0.112964191
				20:[match1_pullDyDz<-1.16481614] yes=41,no=42,missing=42
					41:leaf=0.0371042155
					42:leaf=-0.0120314807
			10:[chi2LocalPosition<28.801672] yes=21,no=22,missing=22
				21:[match1_pullX<-1.57554054] yes=43,no=44,missing=44
					43:leaf=-0
					44:leaf=-0.18591097
				22:leaf=-0
	2:[match1_pullY<-0.855460703] yes=5,no=6,missing=6
		5:[match2_dY<46.0790329] yes=11,no=12,missing=12
			11:[match2_pullY<-0.645506144] yes=23,no=24,missing=24
				23:[match1_pullY<-1.38753259] yes=47,no=48,missing=48
					47:leaf=-0.0684858784
					48:leaf=-0
				24:[nValidHits<20] yes=49,no=50,missing=50
					49:leaf=-0.0425475799
					50:leaf=-0.117052823
			12:[match1_pullDxDz<3.83723068] yes=25,no=26,missing=26
				25:[match1_pullDxDz<-2.66913033] yes=51,no=52,missing=52
					51:leaf=-0.0700366646
					52:leaf=0.0196150914
				26:[trkValidFrac<0.90625] yes=53,no=54,missing=54
					53:leaf=0.143106267
					54:leaf=-0.168930486
		6:[match2_dY<1.32972717] yes=13,no=14,missing=14
			13:[chi2LocalPosition<13.7145319] yes=27,no=28,missing=28
				27:[glbTrackProbability<0.094753556] yes=55,no=56,missing=56
					55:leaf=0.0253066737
					56:leaf=0.00429552374
				28:[glbTrackProbability<6.66025591] yes=57,no=58,missing=58
					57:leaf=0.0654921904
					58:leaf=0.277876645
			14:[pt<2.20024514] yes=29,no=30,missing=30
				29:[chi2LocalPosition<2.01030636] yes=59,no=60,missing=60
					59:leaf=0.0107762823
					60:leaf=0.0566619709
				30:[eta<-1.17114258] yes=61,no=62,missing=62
					61:leaf=-0.0145180058
					62:leaf=-0.000717196846
booster[32]:
0:[nPixels<4] yes=1,no=2,missing=2
	1:[chi2LocalPosition<3.41475081] yes=3,no=4,missing=4
		3:[pt<2.4028933] yes=7,no=8,missing=8
			7:[match1_dX<7.03044748] yes=15,no=16,missing=16
				15:[nLostHitsOn<1] yes=31,no=32,missing=32
					31:leaf=-0.0309567191
					32:leaf=-0.0694144219
				16:[match2_pullX<2.11995482] yes=33,no=34,missing=34
					33:leaf=-0.0194543395
					34:leaf=0.0339407586
			8:[nLostHitsOn<1] yes=17,no=18,missing=18
				17:[pt<3.31864572] yes=35,no=36,missing=36
					35:leaf=0.00195443002
					36:leaf=-0.0271253679
				18:[eta<-1.49267578] yes=37,no=38,missing=38
					37:leaf=-0.0407593101
					38:leaf=0.0195243284
		4:[match1_pullX<1.53417099] yes=9,no=10,missing=10
			9:[chi2LocalPosition<5.87262106] yes=19,no=20,missing=20
				19:[match1_pullX<-0.992479503] yes=39,no=40,missing=40
					39:leaf=-0.0045276233
					40:leaf=0.0275485273
				20:[match1_pullDyDz<-0.730568886] yes=41,no=42,missing=42
					41:leaf=0.0170145147
					42:leaf=0.0725740939
			10:[pt<3.81967473] yes=21,no=22,missing=22
				21:[glbTrackProbability<34.5493126] yes=43,no=44,missing=44
					43:leaf=0.0239921901
					44:leaf=0.151068628
				22:[match2_pullDxDz<-1.33508646] yes=45,no=46,missing=46
					45:leaf=0.025569804
					46:leaf=-0.0351216234
	2:[match1_pullX<-0.653144062] yes=5,no=6,missing=6
		5:[match2_pullDxDz<-0.41759792] yes=11,no=12,missing=12
			11:[pt<2.43935394] yes=23,no=24,missing=24
				23:[match2_pullDyDz<1.1629144] yes=47,no=48,missing=48
					47:leaf=-0
					48:leaf=-0.0771382302
				24:[match1_dX<-15.7028885] yes=49,no=50,missing=50
					49:leaf=-0.000667990127
					50:leaf=-0.0797403008
			12:[match1_pullDxDz<0.0885528624] yes=25,no=26,missing=26
				25:[match2_pullX<-0.640252709] yes=51,no=52,missing=52
					51:leaf=-0.0061521274
					52:leaf=-0.0580379702
				26:[match1_pullX<-2.46970963] yes=53,no=54,missing=54
					53:leaf=-0.0506712906
					54:leaf=0.00347157288
		6:[match1_dX<1.36992502] yes=13,no=14,missing=14
			13:[chi2LocalPosition<7.45549965] yes=27,no=28,missing=28
				27:[match2_pullDxDz<-0.975866616] yes=55,no=56,missing=56
					55:leaf=-0.0181285869
					56:leaf=0.0124550769
				28:[match1_pullY<-1.79654706] yes=57,no=58,missing=58
					57:leaf=-0.0731377527
					58:leaf=0.13615872
			14:[match2_pullDxDz<0.378331453] yes=29,no=30,missing=30
				29:[match2_pullX<1.85044181] yes=59,no=60,missing=60
					59:leaf=0.00982847065
					60:leaf=-0.0368243493
				30:[match2_pullDyDz<0.466549814] yes=61,no=62,missing=62
					61:leaf=-0.0315961279
					62:leaf=-0.00256575923
booster[33]:
0:[pt<6.18198729] yes=1,no=2,missing=2
	1:[chi2LocalPosition<87.6676636] yes=3,no=4,missing=4
		3:[match2_pullDxDz<-1.57712591] yes=7,no=8,missing=8
			7:[match2_dX<18.239912] yes=15,no=16,missing=16
				15:[match2_dY<11.9459267] yes=31,no=32,missing=32
					31:leaf=-0.0199898053
					32:leaf=-0.0919243917
				16:[match2_pullDxDz<-3.63632298] yes=33,no=34,missing=34
					33:leaf=-0.100646593
					34:leaf=0.0314662047
			8:[match2_pullDxDz<1.11724615] yes=17,no=18,missing=18
				17:[match2_pullX<1.78339624] yes=35,no=36,missing=36
					35:leaf=0.0044894726
					36:leaf=-0.0601308234
				18:[chi2LocalPosition<0.00384560646] yes=37,no=38,missing=38
					37:leaf=-0.0204521939
					38:leaf=0.00209923019
		4:[nLostHitsOuter<1] yes=9,no=10,missing=10
			9:[glbTrackProbability<4.16494417] yes=19,no=20,missing=20
				19:leaf=-0
				20:[nValidHits<21] yes=41,no=42,missing=42
					41:leaf=0.117342018
					42:leaf=0.321485162
			10:[pt<5.29208422] yes=21,no=22,missing=22
				21:[eta<-2.08496094] yes=43,no=44,missing=44
					43:leaf=-0
					44:leaf=0.51728493
				22:[trkValidFrac<0.628571451] yes=45,no=46,missing=46
					45:leaf=0.153818369
					46:leaf=-0.0265826005
	2:[chi2LocalPosition<34.227108] yes=5,no=6,missing=6
		5:[trkKink<23.7690678] yes=11,no=12,missing=12
			11:[glbTrackProbability<9.97933674] yes=23,no=24,missing=24
				23:[glbTrackProbability<1.09978223] yes=47,no=48,missing=48
					47:leaf=0.0327169485
					48:leaf=0.00579215167
				24:[match2_pullX<1.15831232] yes=49,no=50,missing=50
					49:leaf=0.120270535
					50:leaf=0.0343238898
			12:[glbTrackProbability<10.3694715] yes=25,no=26,missing=26
				25:[glbTrackProbability<4.06262827] yes=51,no=52,missing=52
					51:leaf=-0
					52:leaf=-0.0747184977
				26:[chi2LocalPosition<8.41259766] yes=53,no=54,missing=54
					53:leaf=0.0248665996
					54:leaf=-0.0825693682
		6:[match2_pullDxDz<2.16048861] yes=13,no=14,missing=14
			13:[match1_dY<-25.658802] yes=27,no=28,missing=28
				27:leaf=-0
				28:[match2_pullDxDz<-3.00292087] yes=55,no=56,missing=56
					55:leaf=-0
					56:leaf=0.336743981
			14:[glbTrackProbability<210.268768] yes=29,no=30,missing=30
				29:[glbTrackProbability<6.08512259] yes=57,no=58,missing=58
					57:leaf=0.0423789769
					58:leaf=-0.135588795
				30:[pt<7.06518078] yes=59,no=60,missing=60
					59:leaf=0.206574038
					60:leaf=0.0171782672
booster[34]:
0:[eta<1.46679688] yes=1,no=2,missing=2
	1:[eta<-0.764160156] yes=3,no=4,missing=4
		3:[pt<3.31864572] yes=7,no=8,missing=8
			7:[eta<-1.32055664] yes=15,no=16,missing=16
				15:[chi2LocalPosition<42.4369469] yes=31,no=32,missing=32
					31:leaf=1.76994399e-05
					32:leaf=0.180101618
				16:[chi2LocalPosition<2.965307] yes=33,no=34,missing=34
					33:leaf=0.0178370569
					34:leaf=0.108193569
			8:[match1_pullX<1.53417099] yes=17,no=18,missing=18
				17:[pt<3.93798494] yes=35,no=36,missing=36
					35:leaf=-0.0196782164
					36:leaf=0.00370439398
				18:[eta<-2.39550781] yes=37,no=38,missing=38
					37:leaf=0.0926467106
					38:leaf=-0.0413196646
		4:[chi2LocalPosition<28.801672] yes=9,no=10,missing=10
			9:[chi2LocalPosition<5.87262106] yes=19,no=20,missing=20
				19:[pt<3.56727695] yes=39,no=40,missing=40
					39:leaf=0.023994321
					40:leaf=-0.000707949628
				20:[trkValidFrac<0.90322578] yes=41,no=42,missing=42
					41:leaf=-0.0277927853
					42:leaf=0.0529332235
			10:[match2_pullDxDz<1.32634306] yes=21,no=22,missing=22
				21:[match2_dY<-34.4557266] yes=43,no=44,missing=44
					43:leaf=-0.0383532122
					44:leaf=0.161106646
				22:[pt<4.19000244] yes=45,no=46,missing=46
					45:leaf=0.0237842966
					46:leaf=-0.106627889
	2:[chi2LocalPosition<5.24369478] yes=5,no=6,missing=6
		5:[match1_dY<-2.01108265] yes=11,no=12,missing=12
			11:[match2_pullDyDz<0.418971032] yes=23,no=24,missing=24
				23:[match2_dY<-4.1726265] yes=47,no=48,missing=48
					47:leaf=-0.0124031333
					48:leaf=-0.0735136271
				24:[match1_pullDxDz<1.58715498] yes=49,no=50,missing=50
					49:leaf=-0.00167210086
					50:leaf=-0.0518718176
			12:[eta<1.51098633] yes=25,no=26,missing=26
				25:[pt<2.16848707] yes=51,no=52,missing=52
					51:leaf=0.0136756683
					52:leaf=-0.0477879047
				26:[eta<2.41601562] yes=53,no=54,missing=54
					53:leaf=0.000487870711
					54:leaf=0.0728531033
		6:[match1_pullX<1.17101038] yes=13,no=14,missing=14
			13:[match1_pullY<1.82491779] yes=27,no=28,missing=28
				27:[match1_pullY<-1.18220782] yes=55,no=56,missing=56
					55:leaf=-0.0582419522
					56:leaf=0.059227325
				28:[pt<8.01615334] yes=57,no=58,missing=58
					57:leaf=-0.11317879
					58:leaf=0.0718477592
			14:[chi2LocalPosition<42.4369469] yes=29,no=30,missing=30
				29:[pt<2.65295172] yes=59,no=60,missing=60
					59:leaf=-0.0254511163
					60:leaf=-0.133420348
				30:[trkKink<34.2602005] yes=61,no=62,missing=62
					61:leaf=0.0641815737
					62:leaf=0.314223707
booster[35]:
0:[glbTrackProbability<0.820021808] yes=1,no=2,missing=2
	1:[pt<5.24719524] yes=3,no=4,missing=4
		3:[match2_pullDxDz<1.38356829] yes=7,no=8,missing=8
			7:[match2_pullDxDz<-2.41366529] yes=15,no=16,missing=16
				15:[trkValidFrac<0.866666675] yes=31,no=32,missing=32
					31:leaf=0.106555074
					32:leaf=-0.0482901894
				16:[nLostHitsInner<1] yes=33,no=34,missing=34
					33:leaf=0.0096576428
					34:leaf=-0.0194151644
			8:[match2_pullDyDz<6.67707682] yes=17,no=18,missing=18
				17:[match2_pullX<-0.889197052] yes=35,no=36,missing=36
					35:leaf=-0.000128634143
					36:leaf=-0.0838332847
				18:[match1_pullDyDz<-1.01753521] yes=37,no=38,missing=38
					37:leaf=-0.035384614
					38:leaf=0.00660721213
		4:[chi2LocalPosition<7.45549965] yes=9,no=10,missing=10
			9:[eta<2.39111328] yes=19,no=20,missing=20
				19:[chi2LocalPosition<0.00384560646] yes=39,no=40,missing=40
					39:leaf=-0.0210722052
					40:leaf=0.0276687499
				20:[chi2LocalPosition<0.743608475] yes=41,no=42,missing=42
					41:leaf=0.160980403
					42:leaf=-0
			10:[chi2LocalPosition<56.6024895] yes=21,no=22,missing=22
				21:[trkValidFrac<0.916666687] yes=43,no=44,missing=44
					43:leaf=-0.0132584516
					44:leaf=0.149763495
				22:[pt<8.22421265] yes=45,no=46,missing=46
					45:leaf=-0.0888830796
					46:leaf=0.0883174315
	2:[pt<3.31864572] yes=5,no=6,missing=6
		5:[match2_pullDyDz<3.18909073] yes=11,no=12,missing=12
			11:[trkValidFrac<0.90625] yes=23,no=24,missing=24
				23:[eta<-1.76489258] yes=47,no=48,missing=48
					47:leaf=-0.122968771
					48:leaf=-0.0502326451
				24:[match2_pullY<1.97426426] yes=49,no=50,missing=50
					49:leaf=0.00214099139
					50:leaf=-0.0877359882
			12:[chi2LocalPosition<34.227108] yes=25,no=26,missing=26
				25:[eta<-1.74169922] yes=51,no=52,missing=52
					51:leaf=-0.00785173662
					52:leaf=0.0297963209
				26:[glbTrackProbability<21.1163578] yes=53,no=54,missing=54
					53:leaf=0.0237271022
					54:leaf=0.210614935
		6:[trkKink<35.5576553] yes=13,no=14,missing=14
			13:[pt<6.8298254] yes=27,no=28,missing=28
				27:[eta<0.985839844] yes=55,no=56,missing=56
					55:leaf=-0.00999594852
					56:leaf=-0.0275634509
				28:[match1_pullDyDz<-1.47892261] yes=57,no=58,missing=58
					57:leaf=0.0687584206
					58:leaf=0.00434713438
			14:[glbTrackProbability<22.4265442] yes=29,no=30,missing=30
				29:[glbTrackProbability<7.81230927] yes=59,no=60,missing=60
					59:leaf=0.0931134894
					60:leaf=0.0222991016
				30:[chi2LocalPosition<28.801672] yes=61,no=62,missing=62
					61:leaf=-0.0514766723
					62:leaf=0.0713782534
booster[36]:
0:[eta<-2.15820312] yes=1,no=2,missing=2
	1:[trkKink<16.6627598] yes=3,no=4,missing=4
		3:[match1_pullY<-1.50618613] yes=7,no=8,missing=8
			7:[nValidHits<16] yes=15,no=16,missing=16
				15:[pt<4.89496899] yes=31,no=32,missing=32
					31:leaf=-0.0249416977
					32:leaf=0.154844373
				16:[chi2LocalPosition<0.220296919] yes=33,no=34,missing=34
					33:leaf=-0.150305748
					34:leaf=-0.0570187047
			8:[eta<-2.42041016] yes=17,no=18,missing=18
				17:[glbTrackProbability<0.0414285734] yes=35,no=36,missing=36
					35:leaf=0.0744870901
					36:leaf=0.0057914434
				18:[nLostHitsInner<3] yes=37,no=38,missing=38
					37:leaf=0.00430600392
					38:leaf=0.113253608
		4:[nValidHits<20] yes=9,no=10,missing=10
			9:[glbTrackProbability<2.52927256] yes=19,no=20,missing=20
				19:[trkKink<25.2119293] yes=39,no=40,missing=40
					39:leaf=0.0693318024
					40:leaf=0.00125091034
				20:[pt<3.78757811] yes=41,no=42,missing=42
					41:leaf=-0.0376048274
					42:leaf=0.0420742594
			10:[glbTrackProbability<23.9280891] yes=21,no=22,missing=22
				21:[eta<-2.18847656] yes=43,no=44,missing=44
					43:leaf=0.0808143616
					44:leaf=0.03073138
				22:[trkKink<43.5010376] yes=45,no=46,missing=46
					45:leaf=0.115510993
					46:leaf=-0.0778649449
	2:[pt<2.06002402] yes=5,no=6,missing=6
		5:[trkKink<18.8519993] yes=11,no=12,missing=12
			11:[match2_dY<-37.4047623] yes=23,no=24,missing=24
				23:[match1_pullY<-1.38753259] yes=47,no=48,missing=48
					47:leaf=-0
					48:leaf=-0.142000377
				24:[glbTrackProbability<0.00700274017] yes=49,no=50,missing=50
					49:leaf=0.0319747552
					50:leaf=0.00424460554
			12:[trkKink<66.3660965] yes=25,no=26,missing=26
				25:[pt<2.01634693] yes=51,no=52,missing=52
					51:leaf=0.0146104293
					52:leaf=0.0767398626
				26:[nValidHits<19] yes=53,no=54,missing=54
					53:leaf=0.0442086533
					54:leaf=-0.0352215171
		6:[eta<-1.47021484] yes=13,no=14,missing=14
			13:[eta<-1.52539062] yes=27,no=28,missing=28
				27:[glbTrackProbability<7.81230927] yes=55,no=56,missing=56
					55:leaf=-0.00272523309
					56:leaf=-0.0306222569
				28:[trkValidFrac<0.947368443] yes=57,no=58,missing=58
					57:leaf=0.0146925459
					58:leaf=-0.0454970077
			14:[eta<1.21020508] yes=29,no=30,missing=30
				29:[pt<3.56727695] yes=59,no=60,missing=60
					59:leaf=0.0216453914
					60:leaf=-0.000360721926
				30:[match2_dY<10.9296036] yes=61,no=62,missing=62
					61:leaf=0.000324810797
					62:leaf=-0.015616742
booster[37]:
0:[match1_pullX<-2.69518757] yes=1,no=2,missing=2
	1:[match1_dX<-54.7609215] yes=3,no=4,missing=4
		3:[match1_pullDyDz<2.07340932] yes=7,no=8,missing=8
			7:[trkKink<8.88796902] yes=15,no=16,missing=16
				15:[glbTrackProbability<0.910469592] yes=31,no=32,missing=32
					31:leaf=-0.0962505564
					32:leaf=-0
				16:[eta<0.496582031] yes=33,no=34,missing=34
					33:leaf=0.069001101
					34:leaf=-0
			8:[match1_pullDxDz<1.96528637] yes=17,no=18,missing=18
				17:leaf=-0
				18:[match2_pullDyDz<1.69934201] yes=35,no=36,missing=36
					35:leaf=-0
					36:leaf=0.142966956
		4:[match1_pullDxDz<-0.832857013] yes=9,no=10,missing=10
			9:[eta<-0.0708007812] yes=19,no=20,missing=20
				19:leaf=-0
				20:[chi2LocalPosition<12.4358149] yes=39,no=40,missing=40
					39:leaf=0.130001813
					40:leaf=-0
			10:[match1_pullDxDz<2.38752651] yes=21,no=22,missing=22
				21:[trkValidFrac<0.870967746] yes=41,no=42,missing=42
					41:leaf=0.0111397225
					42:leaf=-0.158582389
				22:[nValidHits<22] yes=43,no=44,missing=44
					43:leaf=-0.0226926152
					44:leaf=-0.114104025
	2:[pt<13.3205967] yes=5,no=6,missing=6
		5:[match1_pullDyDz<1.28995073] yes=11,no=12,missing=12
			11:[match1_pullY<2.2813983] yes=23,no=24,missing=24
				23:[match1_pullX<2.46947336] yes=45,no=46,missing=46
					45:leaf=-5.30726647e-05
					46:leaf=-0.0732990429
				24:[trkValidFrac<0.862068951] yes=47,no=48,missing=48
					47:leaf=0.0652650744
					48:leaf=-0.116356768
			12:[chi2LocalPosition<13.7145319] yes=25,no=26,missing=26
				25:[eta<2.39111328] yes=49,no=50,missing=50
					49:leaf=0.00665346161
					50:leaf=0.0624595992
				26:[nLostHitsInner<1] yes=51,no=52,missing=52
					51:leaf=-0.0347919092
					52:leaf=0.0647996366
		6:[match2_dY<-2.67131805] yes=13,no=14,missing=14
			13:[chi2LocalPosition<2.965307] yes=27,no=28,missing=28
				27:[match1_pullDyDz<-0.00304426486] yes=53,no=54,missing=54
					53:leaf=-0
					54:leaf=-0.09531001
				28:[match2_dX<5.24602127] yes=55,no=56,missing=56
					55:leaf=0.0591952726
					56:leaf=-0.0585365444
			14:[nPixels<3] yes=29,no=30,missing=30
				29:[match2_pullDxDz<-2.24568534] yes=57,no=58,missing=58
					57:leaf=-0
					58:leaf=0.124091245
				30:[trkKink<999] yes=59,no=60,missing=60
					59:leaf=0.0450045094
					60:leaf=0.19404386
booster[38]:
0:[nLostHitsInner<4] yes=1,no=2,missing=2
	1:[trkValidFrac<0.923076928] yes=3,no=4,missing=4
		3:[glbTrackProbability<5.42748213] yes=7,no=8,missing=8
			7:[match1_pullDxDz<-3.47052383] yes=15,no=16,missing=16
				15:[glbTrackProbability<0.0671326518] yes=31,no=32,missing=32
					31:leaf=0.244963929
					32:leaf=-0
				16:[nLostHitsOuter<3] yes=33,no=34,missing=34
					33:leaf=0.0323934332
					34:leaf=-0.00964049995
			8:[nValidHits<9] yes=17,no=18,missing=18
				17:[glbTrackProbability<46.0978088] yes=35,no=36,missing=36
					35:leaf=0.0287911147
					36:leaf=0.132912397
				18:[eta<1.71557617] yes=37,no=38,missing=38
					37:leaf=-0.0245325714
					38:leaf=-0.0974345282
		4:[nPixels<2] yes=9,no=10,missing=10
			9:[chi2LocalPosition<5.87262106] yes=19,no=20,missing=20
				19:[nValidHits<12] yes=39,no=40,missing=40
					39:leaf=-0.234701499
					40:leaf=-0.0972048864
				20:[pt<2.97432661] yes=41,no=42,missing=42
					41:leaf=-0
					42:leaf=0.125061825
			10:[nLostHitsInner<2] yes=21,no=22,missing=22
				21:[trkKink<210.056396] yes=43,no=44,missing=44
					43:leaf=0.00012975854
					44:leaf=-0.0991874263
				22:[trkKink<18.8519993] yes=45,no=46,missing=46
					45:leaf=-0.207549632
					46:leaf=-0
	2:[pt<2.61995459] yes=5,no=6,missing=6
		5:[glbTrackProbability<0.00347998762] yes=11,no=12,missing=12
			11:[pt<2.09541726] yes=23,no=24,missing=24
				23:leaf=-0
				24:[eta<2.21582031] yes=49,no=50,missing=50
					49:leaf=0.154073402
					50:leaf=-0
			12:[trkValidFrac<0.793103456] yes=25,no=26,missing=26
				25:[match2_pullY<-0.532259226] yes=51,no=52,missing=52
					51:leaf=0.0921760947
					52:leaf=-0.00906331837
				26:[glbTrackProbability<18.7992802] yes=53,no=54,missing=54
					53:leaf=-0.093043752
					54:leaf=-0
		6:[match1_pullY<1.06619906] yes=13,no=14,missing=14
			13:[eta<2.15332031] yes=27,no=28,missing=28
				27:[eta<-2.28564453] yes=55,no=56,missing=56
					55:leaf=0.139447927
					56:leaf=-0.124412686
				28:[match2_dY<4.04379654] yes=57,no=58,missing=58
					57:leaf=0.20251067
					58:leaf=-0
			14:[match2_pullY<1.00803828] yes=29,no=30,missing=30
				29:[eta<1.45458984] yes=59,no=60,missing=60
					59:leaf=-0.15528433
					60:leaf=-0
				30:[pt<5.04108238] yes=61,no=62,missing=62
					61:leaf=0.0572575144
					62:leaf=-0.0289317202
booster[39]:
0:[match1_dX<-2.39640522] yes=1,no=2,missing=2
	1:[match1_pullDxDz<-0.404525906] yes=3,no=4,missing=4
		3:[trkValidFrac<0.857142866] yes=7,no=8,missing=8
			7:[match1_pullDxDz<-1.12513185] yes=15,no=16,missing=16
				15:[chi2LocalPosition<0.617034078] yes=31,no=32,missing=32
					31:leaf=0.211633965
					32:leaf=0.00657420931
				16:[trkKink<33.0102196] yes=33,no=34,missing=34
					33:leaf=-0.0384265035
					34:leaf=0.0384985209
			8:[match2_pullX<-0.737298608] yes=17,no=18,missing=18
				17:[match2_pullDxDz<0.503777981] yes=35,no=36,missing=36
					35:leaf=-0.0617099069
					36:leaf=0.0156832039
				18:[pt<3.58092666] yes=37,no=38,missing=38
					37:leaf=-0.0564251356
					38:leaf=-0.113621831
		4:[match2_pullDxDz<-0.219262049] yes=9,no=10,missing=10
			9:[match2_dX<6.94711685] yes=19,no=20,missing=20
				19:[match2_pullDxDz<-3.63632298] yes=39,no=40,missing=40
					39:leaf=0.0571773835
					40:leaf=-0.032411512
				20:[match2_pullDxDz<-3.63632298] yes=41,no=42,missing=42
					41:leaf=-0.111991152
					42:leaf=0.0229270272
			10:[trkValidFrac<0.793103456] yes=21,no=22,missing=22
				21:[match1_pullDxDz<3.18387866] yes=43,no=44,missing=44
					43:leaf=-0.0681267157
					44:leaf=0.118339367
				22:[match1_pullX<-1.94695485] yes=45,no=46,missing=46
					45:leaf=-0.0186707154
					46:leaf=0.00397971738
	2:[match1_dX<1.08129978] yes=5,no=6,missing=6
		5:[chi2LocalPosition<5.87262106] yes=11,no=12,missing=12
			11:[pt<2.48669863] yes=23,no=24,missing=24
				23:[glbTrackProbability<0.0142922699] yes=47,no=48,missing=48
					47:leaf=0.0132046733
					48:leaf=-0.0146218184
				24:[match2_pullX<-0.831268132] yes=49,no=50,missing=50
					49:leaf=-0.0201418232
					50:leaf=0.0161022209
			12:[match1_pullY<-2.12003446] yes=25,no=26,missing=26
				25:[nValidHits<20] yes=51,no=52,missing=52
					51:leaf=0.0327836946
					52:leaf=-0.0919044986
				26:[match1_pullY<2.00303721] yes=53,no=54,missing=54
					53:leaf=0.149546951
					54:leaf=-0
		6:[match1_pullDxDz<-0.199511886] yes=13,no=14,missing=14
			13:[match1_pullX<2.29663372] yes=27,no=28,missing=28
				27:[match2_dX<31.9935722] yes=55,no=56,missing=56
					55:leaf=0.00034587452
					56:leaf=0.0212467331
				28:[match1_pullDxDz<-1.69309676] yes=57,no=58,missing=58
					57:leaf=-0.0200115815
					58:leaf=-0.163349733
			14:[match1_dY<72.8831482] yes=29,no=30,missing=30
				29:[match1_pullX<0.676421702] yes=59,no=60,missing=60
					59:leaf=-0.0101897651
					60:leaf=-0.0684164613
				30:[match2_pullX<0.860383391] yes=61,no=62,missing=62
					61:leaf=0.0123895723
					62:leaf=-0.00885695685
booster[40]:
0:[nPixels<4] yes=1,no=2,missing=2
	1:[chi2LocalPosition<3.73601604] yes=3,no=4,missing=4
		3:[trkKink<16.6627598] yes=7,no=8,missing=8
			7:[trkValidFrac<0.920000017] yes=15,no=16,missing=16
				15:[nLostHitsInner<2] yes=31,no=32,missing=32
					31:leaf=0.0317803361
					32:leaf=-0.0188227221
				16:[nPixels<2] yes=33,no=34,missing=34
					33:leaf=-0.0960855484
					34:leaf=-0.0180713218
			8:[nLostHitsInner<2] yes=17,no=18,missing=18
				17:[eta<-1.74169922] yes=35,no=36,missing=36
					35:leaf=-0.0514127202
					36:leaf=0.0155295851
				18:[glbTrackProbability<0.0759807006] yes=37,no=38,missing=38
					37:leaf=0.0680554807
					38:leaf=-0.111041583
		4:[match2_pullY<-2.20486236] yes=9,no=10,missing=10
			9:[nLostHitsOuter<1] yes=19,no=20,missing=20
				19:[glbTrackProbability<10.7714739] yes=39,no=40,missing=40
					39:leaf=0.0700427443
					40:leaf=-0.0166598018
				20:[match1_pullX<-1.79495811] yes=41,no=42,missing=42
					41:leaf=-0
					42:leaf=0.254249275
			10:[nLostHitsInner<1] yes=21,no=22,missing=22
				21:[match1_pullY<0.831068277] yes=43,no=44,missing=44
					43:leaf=0.0244945716
					44:leaf=-0.00558397174
				22:[match2_dY<-17.6242065] yes=45,no=46,missing=46
					45:leaf=-0.0505846776
					46:leaf=0.0365391634
	2:[match1_pullY<-1.02829134] yes=5,no=6,missing=6
		5:[match2_pullDyDz<0.620790124] yes=11,no=12,missing=12
			11:[match2_pullY<-0.842666805] yes=23,no=24,missing=24
				23:[match1_pullY<-2.12003446] yes=47,no=48,missing=48
					47:leaf=-0.0969406515
					48:leaf=-0.0017605609
				24:[match2_dY<25.2492886] yes=49,no=50,missing=50
					49:leaf=-0.081361264
					50:leaf=0.0297024343
			12:[match1_pullDxDz<2.2521987] yes=25,no=26,missing=26
				25:[match1_pullDxDz<-2.30995393] yes=51,no=52,missing=52
					51:leaf=-0.044377517
					52:leaf=0.00818968378
				26:[match1_pullX<-1.94695485] yes=53,no=54,missing=54
					53:leaf=0.00340336724
					54:leaf=-0.083256498
		6:[trkKink<21.8642406] yes=13,no=14,missing=14
			13:[trkKink<18.8519993] yes=27,no=28,missing=28
				27:[glbTrackProbability<4.61187935] yes=55,no=56,missing=56
					55:leaf=0.00111881329
